{
  "InputNeurons":784,
  "HiddenNeurons":30,
  "OutputNeurons":10,
  "HiddenBiases" : [
    -0.700465,
    0.913627,
    -0.731652,
    0.333881,
    0.595645,
    0.529667,
    -1.466115,
    1.793336,
    -1.135889,
    -0.239873,
    -0.163913,
    -0.332045,
    0.698935,
    0.148072,
    -0.355760,
    0.469127,
    0.206619,
    1.697549,
    0.627833,
    1.907383,
    0.114843,
    -2.673493,
    -0.233995,
    0.233141,
    1.006685,
    2.037479,
    0.643567,
    -0.317727,
    1.545432,
    1.662481
  ],
  "HiddenWeights" : [
    -1.027410,
    0.126820,
    -0.346163,
    1.288997,
    -0.993510,
    -1.821671,
    0.047097,
    0.189079,
    1.251864,
    1.150554,
    1.486522,
    -0.398226,
    0.814029,
    -0.804211,
    1.380409,
    2.005639,
    0.293481,
    -1.717715,
    0.602463,
    -0.897977,
    0.184863,
    -1.381759,
    -3.368433,
    -0.490944,
    -1.564604,
    1.847394,
    -0.071924,
    -1.144219,
    -0.075451,
    0.776705,
    0.651917,
    -1.246244,
    1.563831,
    0.678196,
    0.134066,
    -0.753514,
    0.567623,
    1.746291,
    0.643778,
    0.887037,
    -1.004813,
    -1.661756,
    0.251469,
    0.739952,
    1.583878,
    -1.576372,
    0.766314,
    0.047099,
    -0.568996,
    1.065630,
    1.166314,
    -0.141880,
    -0.612722,
    0.037796,
    -0.328874,
    -0.279402,
    -0.015652,
    2.075638,
    -0.974250,
    1.742033,
    1.380015,
    -1.463791,
    -1.568694,
    0.194582,
    1.051044,
    -1.489221,
    -1.004690,
    -0.826551,
    0.108342,
    -2.820626,
    0.842236,
    -0.337594,
    -0.821659,
    -2.098700,
    -0.242137,
    1.275610,
    -1.602987,
    0.817688,
    -1.301507,
    -0.358869,
    -0.776211,
    -0.149282,
    -2.524522,
    -1.679635,
    -0.146900,
    0.242508,
    0.477192,
    -0.345498,
    0.612606,
    -0.938519,
    1.891039,
    -1.515596,
    -0.321775,
    1.498080,
    -0.469357,
    -1.225351,
    -0.509510,
    -0.662072,
    -0.225179,
    -1.289235,
    -1.516699,
    -0.816020,
    -0.067475,
    0.481526,
    0.316981,
    -1.086304,
    0.425713,
    -0.409835,
    0.464653,
    0.580984,
    -0.817097,
    -0.809305,
    -0.602742,
    0.510207,
    -1.188460,
    1.051754,
    -0.143914,
    -1.427067,
    0.873710,
    0.732193,
    -0.905443,
    -0.774335,
    -1.600903,
    -0.842909,
    -1.464227,
    -1.026441,
    0.071405,
    -1.076733,
    -0.012012,
    -0.210093,
    -0.502092,
    -0.524072,
    0.569521,
    -0.198386,
    0.241515,
    -0.357976,
    -0.442726,
    0.099290,
    -0.557831,
    1.300465,
    -1.297123,
    -0.247537,
    -1.228898,
    -0.095001,
    -0.601000,
    0.177001,
    2.807962,
    2.060317,
    -0.994519,
    0.790654,
    -1.615390,
    1.836399,
    0.776455,
    -1.827425,
    0.055052,
    -1.065668,
    0.419423,
    -1.465747,
    -1.169519,
    -0.790254,
    0.014882,
    -0.735389,
    -0.452044,
    0.406386,
    1.869855,
    0.636025,
    1.581290,
    1.117965,
    -0.082499,
    0.401378,
    1.117981,
    -0.167831,
    0.175683,
    -0.770369,
    0.113793,
    1.200172,
    1.272487,
    0.527817,
    -1.588761,
    0.242393,
    0.875113,
    -0.641872,
    0.711113,
    -0.244647,
    -0.470863,
    1.155311,
    -0.311709,
    -1.774403,
    -0.475889,
    2.611209,
    -0.571039,
    -0.942203,
    -1.036622,
    0.426353,
    -0.126044,
    1.218348,
    0.932352,
    1.630033,
    -1.181856,
    -1.212257,
    0.896758,
    -0.037025,
    -1.786629,
    0.242194,
    0.709423,
    0.968240,
    0.161030,
    -1.468185,
    0.470810,
    -0.239534,
    -0.255395,
    -1.770404,
    2.204030,
    0.661891,
    1.329492,
    0.066748,
    0.902400,
    -0.427298,
    -1.877743,
    -0.419530,
    -0.175591,
    0.665606,
    -0.496823,
    1.256470,
    1.624974,
    -0.616368,
    0.511665,
    -0.227479,
    -0.349424,
    0.868099,
    0.713128,
    1.242152,
    0.907723,
    0.991289,
    -0.291017,
    1.227508,
    2.081609,
    -0.764444,
    0.416367,
    1.126423,
    -0.813373,
    0.790495,
    -0.957223,
    -0.132998,
    1.304026,
    -0.323595,
    -0.543081,
    -0.174851,
    1.439376,
    -0.665393,
    -0.981982,
    0.036773,
    0.154050,
    -0.202063,
    0.429850,
    -0.674849,
    1.113353,
    -0.846830,
    1.106780,
    -0.063375,
    -0.015298,
    1.615280,
    0.022675,
    0.335948,
    1.136250,
    0.375553,
    -1.024932,
    -1.289451,
    0.055994,
    0.455203,
    -0.248701,
    1.366229,
    1.219808,
    0.013508,
    0.169932,
    0.178059,
    0.994282,
    -1.887480,
    1.399461,
    -1.480439,
    0.117333,
    0.364057,
    -0.296919,
    -0.950900,
    -0.215500,
    0.105168,
    0.963735,
    0.164198,
    0.909089,
    0.189383,
    1.505171,
    1.611839,
    1.094779,
    0.700784,
    0.388026,
    -0.116039,
    -0.293550,
    2.240638,
    0.928095,
    -0.321389,
    0.347354,
    0.514196,
    -0.116426,
    1.151617,
    -0.169672,
    -1.345553,
    -0.017995,
    -0.278655,
    0.074499,
    -1.484343,
    0.272195,
    1.449766,
    -0.356066,
    -1.528435,
    -0.504730,
    2.072913,
    1.910923,
    0.721012,
    1.797895,
    0.476430,
    0.532719,
    0.645922,
    0.114968,
    -2.398719,
    -1.204210,
    1.432000,
    1.198426,
    0.188944,
    1.087025,
    0.474728,
    0.580824,
    -0.864021,
    -1.118061,
    -0.971152,
    -0.816491,
    0.053007,
    2.498309,
    1.478556,
    -1.478890,
    -1.071880,
    -1.363611,
    0.743893,
    0.597419,
    -0.297329,
    0.155341,
    1.137163,
    0.342692,
    1.686176,
    0.497328,
    1.670357,
    1.535347,
    0.384156,
    0.590526,
    -0.631301,
    1.025361,
    -0.714097,
    -0.608327,
    -0.206936,
    1.715806,
    0.758025,
    0.721062,
    0.815623,
    -1.554831,
    0.531613,
    -0.062774,
    -1.309469,
    0.343656,
    -0.690601,
    1.213705,
    2.597982,
    0.961366,
    -0.723984,
    0.734198,
    -0.845064,
    1.773867,
    -0.088816,
    1.585882,
    0.199189,
    0.950697,
    0.031950,
    0.636809,
    -0.021224,
    -0.211493,
    -0.318477,
    -0.586685,
    -0.558421,
    0.935506,
    1.877369,
    -2.104359,
    -1.073091,
    2.094601,
    0.054468,
    -0.327240,
    -0.147002,
    -0.543836,
    0.307251,
    1.505485,
    -0.543670,
    0.701883,
    0.662941,
    1.696933,
    2.452787,
    -0.035106,
    0.628035,
    1.497879,
    -0.908132,
    -1.720944,
    -0.086068,
    -0.981514,
    0.033547,
    -0.235981,
    1.512598,
    -1.261156,
    0.414714,
    0.515970,
    -1.127960,
    1.567769,
    0.063468,
    -0.635552,
    -0.620813,
    0.541186,
    1.625564,
    -1.010400,
    -0.330037,
    0.761745,
    0.153702,
    -1.018073,
    2.337999,
    -0.321720,
    0.116450,
    -0.797487,
    -0.167209,
    1.682433,
    -1.735671,
    0.522854,
    -1.266845,
    1.743077,
    -2.021192,
    0.976456,
    0.117609,
    0.935114,
    -1.248487,
    0.494940,
    1.027001,
    -1.301931,
    -0.061583,
    1.740871,
    0.900986,
    -0.627161,
    -0.555496,
    -0.454937,
    -2.716042,
    -0.270704,
    -0.354007,
    -0.664374,
    0.254034,
    -0.208483,
    0.062068,
    -1.826290,
    0.762300,
    -1.179718,
    -0.646730,
    -1.212309,
    -1.243151,
    1.796095,
    -0.777172,
    -0.193259,
    -1.415996,
    -0.223115,
    0.487861,
    -0.187857,
    -0.474166,
    0.698419,
    -0.904275,
    1.376187,
    1.077721,
    -0.890556,
    0.674315,
    -1.340688,
    1.235883,
    -0.511227,
    -0.625701,
    -0.425127,
    -1.415476,
    -0.383587,
    -1.446305,
    0.216234,
    -0.331653,
    -1.601956,
    -1.309168,
    -0.025363,
    -0.483531,
    1.299347,
    1.846304,
    1.044945,
    0.710226,
    -1.954334,
    -1.808064,
    1.000359,
    -1.780571,
    -2.365372,
    0.240745,
    -1.516868,
    -0.589350,
    -1.402990,
    -0.309648,
    -0.628960,
    -0.154873,
    0.477281,
    0.898594,
    1.209401,
    0.551089,
    -1.893235,
    -0.683971,
    -1.257131,
    0.225920,
    -0.634786,
    -1.005199,
    -0.255732,
    0.124376,
    0.564319,
    -1.979367,
    -1.344391,
    0.512139,
    -0.950173,
    -0.669872,
    1.304528,
    0.001128,
    -0.036565,
    1.159656,
    0.244241,
    0.514021,
    -0.907048,
    -1.508496,
    -0.759198,
    -0.606928,
    -1.163181,
    -1.347449,
    1.214615,
    1.402776,
    1.306890,
    -0.407455,
    -0.506556,
    -1.697962,
    -1.070695,
    0.473966,
    -1.722666,
    -0.853158,
    -0.308327,
    -0.647528,
    1.463675,
    -0.759467,
    -0.509552,
    -1.460900,
    0.483046,
    0.552484,
    -0.070368,
    1.188539,
    -0.981775,
    -0.138282,
    0.676129,
    0.331142,
    1.383598,
    -0.699622,
    1.053495,
    0.837263,
    -0.296955,
    1.282296,
    -1.299334,
    -0.599563,
    0.514842,
    -0.374680,
    0.553823,
    -1.091741,
    -0.406411,
    -0.085973,
    -0.912695,
    0.945767,
    -1.102450,
    -0.780511,
    0.360093,
    -0.965131,
    -0.760550,
    0.318958,
    -1.272292,
    -2.081559,
    0.844017,
    -0.917916,
    -0.580256,
    -0.403773,
    -0.959470,
    -1.029508,
    -1.075171,
    -0.199383,
    -1.340066,
    -1.781798,
    -0.779820,
    1.081610,
    -0.769215,
    1.355868,
    -0.702570,
    -0.153684,
    -0.432166,
    -1.553573,
    1.411663,
    -0.282394,
    2.252918,
    -0.657101,
    -0.961965,
    -1.138327,
    -0.291622,
    1.665673,
    -0.380822,
    -0.023081,
    0.105168,
    2.908528,
    -0.088878,
    1.383143,
    -0.513811,
    0.743401,
    -0.196863,
    -0.483970,
    0.812084,
    1.852986,
    0.454566,
    -0.384220,
    0.106517,
    2.245082,
    1.593168,
    0.363252,
    0.680495,
    -1.016798,
    -1.890462,
    -0.458132,
    -0.235895,
    1.144763,
    1.977182,
    -0.080913,
    0.985334,
    -0.359206,
    0.487523,
    1.464866,
    0.200647,
    -1.132688,
    1.603509,
    0.772267,
    0.016226,
    0.743247,
    1.873802,
    -0.529301,
    0.822144,
    0.220194,
    -0.039518,
    0.944995,
    0.272154,
    0.656224,
    1.066977,
    2.788875,
    0.975168,
    1.055747,
    0.456603,
    0.886476,
    -0.487098,
    1.208603,
    0.030465,
    -0.415269,
    1.280796,
    -0.077324,
    -0.365032,
    -1.330314,
    0.846247,
    1.487827,
    0.417773,
    -0.129867,
    -0.136440,
    -1.153430,
    -2.033767,
    0.325691,
    1.996857,
    -1.454511,
    1.806256,
    -0.255414,
    -0.457885,
    -0.121599,
    1.036975,
    -0.164503,
    1.014117,
    -0.753955,
    -0.666477,
    1.572634,
    1.597990,
    -0.562731,
    -0.024393,
    -0.538307,
    1.793824,
    -1.164277,
    1.108570,
    -0.484253,
    0.490055,
    -1.903901,
    0.123383,
    -0.560218,
    0.731060,
    0.971586,
    -0.442564,
    1.733204,
    -2.227620,
    0.321386,
    0.614196,
    2.738709,
    0.308565,
    1.704557,
    0.278341,
    0.535070,
    -0.090028,
    1.187445,
    -0.086309,
    1.024392,
    -1.094061,
    -1.161211,
    -0.777021,
    -0.312355,
    0.419135,
    -0.869387,
    1.001676,
    0.979845,
    1.168697,
    0.536605,
    -0.962385,
    0.578661,
    0.167033,
    -1.356328,
    -0.630169,
    -0.085899,
    -1.684688,
    -0.886817,
    0.333023,
    -0.704767,
    0.086941,
    -0.159332,
    -1.021261,
    -0.453795,
    0.153080,
    -0.512010,
    -0.360704,
    -0.368133,
    -0.136141,
    1.892703,
    0.167832,
    -1.221329,
    -0.547688,
    -0.983000,
    -1.360789,
    0.012834,
    -0.170160,
    -0.134084,
    0.490584,
    -1.001160,
    -1.601308,
    0.831409,
    1.301308,
    1.067764,
    0.537401,
    0.951658,
    0.201484,
    0.650293,
    0.889214,
    -0.367174,
    0.141215,
    -0.472360,
    -1.148806,
    0.603386,
    1.041765,
    -1.398269,
    -0.858264,
    0.336156,
    -0.881297,
    0.836722,
    1.034211,
    0.688358,
    0.322179,
    -0.323737,
    -0.006257,
    0.144293,
    -1.611576,
    -1.434176,
    0.040732,
    0.123930,
    -1.062049,
    0.466949,
    0.039869,
    -0.450701,
    -0.503453,
    -0.301869,
    -0.554784,
    0.012543,
    0.576026,
    1.479085,
    -0.447253,
    0.179341,
    -0.409817,
    -1.287787,
    1.172090,
    -1.995498,
    -1.721287,
    0.548785,
    -0.549018,
    -1.461621,
    0.120271,
    1.147356,
    -0.700024,
    2.232374,
    -0.438487,
    -0.697014,
    -0.178570,
    -0.600033,
    0.386524,
    -1.671778,
    0.673885,
    -0.106849,
    0.403182,
    1.742181,
    -0.317779,
    -1.044552,
    -0.699095,
    -0.384806,
    -0.393372,
    -0.472570,
    -0.310327,
    0.004434,
    -1.256659,
    -0.506093,
    1.226248,
    -0.836365,
    1.156670,
    -0.067525,
    0.117055,
    -0.307490,
    0.036189,
    0.090301,
    0.001010,
    1.280547,
    -0.810968,
    0.796277,
    1.808088,
    0.252753,
    0.917325,
    0.712068,
    0.322256,
    -0.464790,
    0.778901,
    0.700632,
    -0.281444,
    -0.179325,
    -0.301493,
    1.461964,
    1.085382,
    0.201352,
    -0.516249,
    1.007262,
    0.671598,
    0.520342,
    -0.471698,
    0.519585,
    0.525191,
    -0.458739,
    -0.471363,
    -0.592310,
    0.736288,
    -0.577021,
    -0.737219,
    0.693416,
    0.468262,
    0.652223,
    1.398100,
    -0.156279,
    -0.657103,
    -0.915961,
    -0.536061,
    1.832192,
    -0.699605,
    -0.060513,
    -0.577458,
    -0.006437,
    -0.669558,
    0.489579,
    0.779652,
    1.183325,
    -1.001612,
    0.529073,
    -0.019846,
    0.416683,
    0.043050,
    -0.153327,
    1.726657,
    -1.264799,
    1.245383,
    0.060150,
    -0.883819,
    -0.324874,
    -0.894415,
    0.707886,
    -1.826130,
    0.027820,
    0.599431,
    -0.288912,
    -1.201699,
    0.167490,
    -0.769207,
    -1.140636,
    0.933710,
    0.673500,
    1.837709,
    -1.306868,
    -0.290406,
    0.535783,
    -1.454016,
    -0.323237,
    0.601178,
    1.585640,
    -0.105287,
    -1.024716,
    -0.634180,
    -0.747003,
    -1.396156,
    1.288998,
    -0.002361,
    -1.288851,
    1.167171,
    0.309105,
    -0.392284,
    0.945221,
    1.093244,
    -0.462507,
    -0.120790,
    1.125731,
    -0.412742,
    1.926872,
    0.616677,
    -0.734617,
    0.018534,
    -0.273411,
    0.177989,
    0.651207,
    1.161709,
    -0.386015,
    -0.008168,
    0.023077,
    -1.423848,
    -1.339341,
    1.154395,
    1.185752,
    -0.866740,
    -1.744807,
    -0.533102,
    -0.213546,
    -0.767310,
    -1.229514,
    0.169526,
    -1.158575,
    0.815932,
    0.164391,
    0.932062,
    -0.042389,
    -1.138089,
    -2.120023,
    -0.132760,
    -1.885025,
    -1.052780,
    0.826430,
    1.133623,
    -1.989114,
    0.112436,
    -0.756371,
    1.445099,
    0.489847,
    0.584722,
    -0.232514,
    -0.354551,
    -0.258863,
    0.964532,
    -0.903140,
    -1.227726,
    -0.307209,
    0.049832,
    -1.099059,
    -0.067670,
    0.901759,
    -0.135048,
    -2.358140,
    -1.372715,
    0.720082,
    -0.336747,
    0.627528,
    0.667769,
    2.869946,
    -1.672196,
    -1.132543,
    0.555409,
    0.735711,
    -0.802593,
    -0.374567,
    1.223429,
    -0.347453,
    2.489006,
    -0.113830,
    -1.077901,
    0.746419,
    1.030109,
    -0.987045,
    0.533676,
    -0.818826,
    0.183568,
    2.206060,
    0.055798,
    0.302002,
    0.348981,
    -0.229544,
    0.100429,
    -1.524437,
    -0.448866,
    -0.129820,
    0.751698,
    -1.045087,
    0.952571,
    -1.294868,
    -0.415922,
    -0.189107,
    1.280914,
    0.414970,
    1.165158,
    -0.571184,
    -0.002369,
    1.260307,
    -0.426742,
    -0.563456,
    -1.433937,
    0.573304,
    -1.850114,
    0.712694,
    -0.593109,
    0.432308,
    0.771303,
    -0.605105,
    0.501556,
    1.021428,
    -0.104093,
    -1.582071,
    -1.299243,
    1.211940,
    -0.165714,
    2.112299,
    0.456395,
    -0.219133,
    -0.471624,
    1.013893,
    0.345272,
    -0.730950,
    -0.829427,
    -0.248080,
    -0.944083,
    0.896468,
    1.223826,
    1.460208,
    1.521317,
    0.394754,
    -0.096716,
    -0.066278,
    -1.777375,
    -1.950274,
    -0.157251,
    -1.038329,
    0.144620,
    -0.174910,
    2.270797,
    0.002861,
    -0.398355,
    -0.604297,
    -1.208571,
    -0.318143,
    -0.091482,
    -0.294918,
    0.169866,
    -1.191939,
    -0.953001,
    1.418559,
    -1.050367,
    -1.698001,
    -1.383903,
    -0.165101,
    0.004440,
    -0.340800,
    -0.141939,
    1.085728,
    -1.259198,
    1.643414,
    -0.165741,
    -0.637444,
    -1.841169,
    -0.185566,
    1.161717,
    -1.282573,
    0.437155,
    -0.072157,
    -1.204751,
    -1.156734,
    1.413570,
    -0.229257,
    1.045433,
    -0.152636,
    -0.509392,
    -1.267079,
    -0.964970,
    0.441594,
    0.878320,
    0.695987,
    -0.181867,
    -0.187539,
    -0.714558,
    1.886787,
    -0.335245,
    0.095503,
    -1.349232,
    0.121291,
    -1.328242,
    0.059531,
    1.193051,
    1.045408,
    -1.179243,
    -1.139213,
    -1.078114,
    -0.361729,
    2.484120,
    1.102932,
    0.053037,
    3.338770,
    0.369796,
    0.030781,
    0.098030,
    -0.509370,
    0.931891,
    -2.403983,
    0.390930,
    -0.010383,
    -0.007171,
    2.443559,
    -0.837854,
    -0.655629,
    -2.552035,
    -0.586253,
    1.019034,
    0.174321,
    -1.598843,
    0.172027,
    -0.597683,
    -0.468159,
    0.829496,
    0.613436,
    -0.123046,
    -0.022385,
    0.373758,
    -0.645876,
    0.143563,
    0.609612,
    1.184804,
    -1.272139,
    -0.956603,
    1.470495,
    1.040485,
    0.119643,
    0.849910,
    0.996544,
    0.720584,
    -1.658753,
    -0.802816,
    0.176256,
    -0.007735,
    -1.013327,
    0.635110,
    -0.457057,
    0.390321,
    0.708489,
    -0.342079,
    0.532922,
    0.478537,
    0.223226,
    0.694358,
    -0.551786,
    0.241237,
    0.167574,
    1.429223,
    -1.007170,
    -0.368042,
    -0.101886,
    -0.518376,
    0.350042,
    0.602814,
    -0.115976,
    0.684118,
    -0.901867,
    0.763618,
    0.176311,
    0.468079,
    -0.858128,
    -0.236536,
    0.912604,
    -0.852880,
    -3.666912,
    0.007738,
    -0.471727,
    1.061617,
    -0.447265,
    -0.100580,
    0.904276,
    0.580478,
    0.797954,
    0.564214,
    0.806687,
    -1.785613,
    -0.545901,
    -0.795714,
    -1.169971,
    1.711242,
    -1.323727,
    -0.395925,
    -1.419747,
    0.951539,
    -0.128654,
    0.707571,
    -0.872823,
    0.828112,
    -0.167376,
    -0.389264,
    1.387321,
    0.050516,
    -0.560003,
    -0.724672,
    -0.065591,
    0.389628,
    -2.560348,
    1.147355,
    0.293255,
    -0.607207,
    0.304146,
    0.148004,
    -0.676256,
    1.394960,
    -0.120735,
    1.713085,
    0.362584,
    -0.325256,
    -0.205320,
    0.637068,
    0.993269,
    -1.446871,
    -0.515214,
    -0.106694,
    1.220941,
    0.016820,
    -0.305079,
    0.400527,
    2.149271,
    -0.481507,
    0.042557,
    0.236096,
    -0.774108,
    2.533345,
    0.570416,
    0.138951,
    -0.639398,
    0.335271,
    0.785306,
    -0.335859,
    -1.404083,
    -0.453202,
    0.504963,
    -1.122930,
    0.467744,
    1.888104,
    -0.192312,
    0.676850,
    0.625427,
    0.587952,
    0.136246,
    0.526793,
    1.476489,
    0.171211,
    -0.798117,
    1.503510,
    -0.773459,
    -1.683171,
    -0.300472,
    0.102106,
    -1.543351,
    0.801481,
    1.074977,
    0.922067,
    -0.413937,
    0.142358,
    -0.010689,
    0.262643,
    0.345041,
    0.232873,
    -1.758875,
    -0.260821,
    -1.711420,
    -2.577008,
    0.826426,
    0.866346,
    0.948817,
    0.656955,
    -0.206869,
    -0.948581,
    -1.249217,
    0.079264,
    -0.292715,
    -1.141815,
    0.048493,
    -0.970721,
    -0.114459,
    1.895480,
    -0.100279,
    -1.375358,
    -0.202230,
    -1.548317,
    -0.993260,
    0.309978,
    0.361711,
    -0.736693,
    0.046381,
    0.168262,
    -1.422557,
    -1.103487,
    -1.611820,
    1.005304,
    -1.340280,
    -0.231795,
    1.639962,
    -2.374602,
    0.362105,
    -0.254959,
    1.189187,
    -0.173176,
    0.140234,
    -1.421657,
    0.121171,
    -0.121111,
    -0.458766,
    -0.429495,
    -1.149343,
    -1.597586,
    -0.079449,
    0.725516,
    -0.836390,
    1.934265,
    -0.415861,
    1.249487,
    0.320466,
    -0.783469,
    -1.379891,
    -0.259768,
    -0.146524,
    0.334111,
    -1.219303,
    -2.216165,
    -0.095088,
    -1.021361,
    -0.736112,
    -1.325779,
    -1.764956,
    -0.873417,
    -0.299761,
    0.872061,
    1.123015,
    -0.821250,
    -2.207219,
    -0.328484,
    0.655629,
    -1.132835,
    -1.324814,
    -1.299664,
    -0.133713,
    -0.374969,
    -0.614203,
    1.768839,
    -1.149978,
    -1.460641,
    0.706023,
    -0.655843,
    0.151610,
    -0.708112,
    -0.957057,
    0.328250,
    -0.273756,
    -0.536820,
    -0.979731,
    0.467292,
    -0.134526,
    1.729355,
    0.832175,
    0.659171,
    1.405271,
    -0.990585,
    0.018212,
    -1.341047,
    0.440375,
    0.695156,
    0.370129,
    -0.914972,
    -0.036465,
    -0.012438,
    -0.568572,
    -1.852880,
    -0.004044,
    -0.039487,
    -0.829263,
    -0.665430,
    -2.755288,
    0.465657,
    -0.192474,
    0.915423,
    0.451237,
    -3.020204,
    -0.974071,
    1.231483,
    1.601300,
    1.591871,
    -0.092769,
    0.256183,
    -0.570605,
    0.805349,
    -0.285984,
    0.451798,
    -0.156228,
    -2.268040,
    0.693200,
    2.572170,
    -0.378118,
    1.013021,
    -1.533780,
    -1.341395,
    0.537732,
    0.662136,
    -0.340602,
    -0.118128,
    -0.477607,
    -2.799463,
    -0.663028,
    0.647559,
    -1.299168,
    1.151588,
    0.244518,
    -1.048950,
    -0.003002,
    1.129400,
    0.641353,
    0.497293,
    -1.050887,
    0.522915,
    -0.219767,
    0.803080,
    -0.244462,
    0.459965,
    0.315182,
    -1.036762,
    0.541689,
    -0.235950,
    0.926416,
    -0.246235,
    0.002344,
    -1.198204,
    0.177321,
    -1.003645,
    -0.735264,
    -1.372672,
    1.727672,
    -0.749489,
    0.354561,
    0.944688,
    -0.182836,
    0.894294,
    -1.723741,
    -1.200973,
    -0.614750,
    -2.094866,
    -0.979162,
    2.156751,
    -1.228160,
    2.138572,
    0.824924,
    -1.012975,
    0.159800,
    0.094159,
    -1.369731,
    0.571356,
    -0.833359,
    -0.648874,
    2.158838,
    -0.167642,
    -1.019540,
    -1.491619,
    0.353876,
    0.909560,
    -0.072251,
    -2.387130,
    -1.174632,
    -0.927352,
    -1.831814,
    0.849207,
    0.025576,
    -0.096174,
    0.223093,
    0.223130,
    -0.199357,
    -0.696934,
    0.112322,
    -0.007819,
    0.303861,
    0.196351,
    -0.119632,
    -0.115802,
    -1.388142,
    2.394716,
    -0.056468,
    -0.404279,
    -1.179729,
    -1.192421,
    -1.263526,
    -1.160184,
    0.077266,
    0.063549,
    0.520773,
    -0.481486,
    1.008216,
    0.984652,
    -0.699338,
    2.794275,
    -0.179893,
    -3.126860,
    0.622350,
    0.896398,
    -0.202517,
    0.634255,
    0.707980,
    0.380627,
    -2.525288,
    -0.396020,
    -1.121525,
    0.043747,
    -0.970482,
    0.945423,
    0.046176,
    -1.081445,
    -1.277107,
    0.622580,
    0.099018,
    -0.659695,
    -2.292483,
    0.134844,
    -1.247931,
    -2.100329,
    -0.831477,
    -1.484522,
    -1.111917,
    -1.267892,
    -1.295702,
    -0.391441,
    0.926984,
    0.689221,
    -1.547524,
    0.627392,
    -0.904050,
    -0.345082,
    -0.588850,
    1.496943,
    -0.410561,
    0.108862,
    -0.206057,
    -0.132164,
    0.807219,
    0.261030,
    1.343858,
    -0.093453,
    0.332126,
    0.492723,
    0.590902,
    -1.498710,
    -0.065816,
    -0.516432,
    1.336942,
    1.266240,
    0.610491,
    -0.442138,
    1.600599,
    0.119108,
    0.628231,
    1.354934,
    -0.877045,
    -0.953778,
    -0.565892,
    -0.117768,
    -0.462582,
    -0.715260,
    0.309150,
    0.827501,
    1.216936,
    -0.350147,
    -1.159603,
    1.395276,
    -0.182051,
    -2.920032,
    0.136840,
    -1.573039,
    -2.818315,
    0.207824,
    -0.511865,
    -0.122488,
    -0.932668,
    -1.341334,
    0.110071,
    -0.123181,
    0.776335,
    0.030238,
    -1.731125,
    -0.070067,
    0.356048,
    0.256587,
    1.356341,
    -0.831834,
    -0.455206,
    1.159475,
    -0.498171,
    -1.758969,
    -0.277371,
    -1.035226,
    0.261686,
    -0.501916,
    1.682674,
    0.026681,
    -1.002987,
    -1.463120,
    -0.031561,
    -1.712517,
    1.757155,
    0.011619,
    -1.367363,
    1.068770,
    0.828979,
    -0.805110,
    -0.645187,
    0.364734,
    0.331002,
    0.582082,
    -0.298500,
    -1.865350,
    -2.141249,
    -0.277519,
    1.258979,
    0.642501,
    0.689145,
    -0.887360,
    1.031401,
    0.380480,
    -0.466431,
    0.844793,
    1.521314,
    -0.635439,
    1.407428,
    -0.868896,
    -0.032462,
    0.627508,
    -0.552619,
    2.487108,
    0.486326,
    -0.222485,
    1.756433,
    -0.389743,
    0.569111,
    -0.230990,
    -0.124560,
    -0.631037,
    0.187381,
    -0.246223,
    -0.022310,
    2.430751,
    -0.410966,
    0.543011,
    -1.611931,
    -1.467142,
    1.161748,
    0.872979,
    -0.486393,
    0.094508,
    0.150372,
    -0.474018,
    2.215981,
    -0.026415,
    2.127090,
    1.411172,
    -0.181216,
    -0.900624,
    0.048768,
    -0.172784,
    -1.066726,
    -0.987469,
    -0.380400,
    -0.094267,
    -0.248463,
    -1.843738,
    1.452427,
    1.609432,
    -1.234987,
    0.130083,
    0.458942,
    1.278224,
    0.375331,
    -0.557564,
    -1.235379,
    0.059991,
    0.744092,
    2.344239,
    1.793849,
    0.170908,
    1.213788,
    1.587326,
    1.314673,
    -1.065854,
    1.573054,
    -0.028317,
    1.750943,
    0.641183,
    -1.820900,
    0.910182,
    -0.030280,
    1.025213,
    1.654135,
    -2.096349,
    -2.216509,
    1.395742,
    -1.599240,
    0.055388,
    0.145764,
    -0.457511,
    1.072144,
    -0.634870,
    -0.242201,
    0.191918,
    0.557649,
    0.917759,
    -0.373473,
    0.689541,
    0.672878,
    1.647111,
    0.137208,
    -1.046335,
    0.849764,
    -0.827254,
    -0.809717,
    0.197396,
    -0.631681,
    0.087969,
    0.416373,
    -1.484685,
    1.784095,
    0.484845,
    -1.262359,
    0.269370,
    0.870817,
    1.417945,
    -0.203971,
    -0.520564,
    -0.419456,
    -0.870764,
    0.327388,
    -0.121632,
    -0.051515,
    1.419173,
    0.886168,
    -1.029135,
    1.713965,
    -1.592318,
    -0.019090,
    0.070259,
    0.082447,
    0.072274,
    -0.029216,
    -0.717441,
    -0.120547,
    -1.322635,
    -0.066883,
    0.018222,
    0.272172,
    -0.333973,
    0.513384,
    -0.928681,
    0.529111,
    -0.900200,
    -0.351188,
    0.126830,
    1.122047,
    -0.453017,
    0.032165,
    0.522413,
    0.240832,
    0.230676,
    0.223729,
    -0.274986,
    -0.435220,
    -1.761355,
    0.973684,
    -1.442360,
    -1.331873,
    -0.331496,
    -0.957866,
    -0.049850,
    -0.419574,
    -0.352036,
    -1.080331,
    0.089762,
    0.131712,
    0.585978,
    -0.803962,
    -0.273351,
    -2.367888,
    -0.320228,
    0.321373,
    -2.259438,
    -1.551375,
    -0.247519,
    -0.986745,
    0.186287,
    -0.951834,
    -1.589034,
    -0.170471,
    -0.728768,
    0.806714,
    -0.791536,
    -0.151897,
    -0.768829,
    -1.237900,
    2.009850,
    -0.481502,
    0.032553,
    0.647721,
    0.182899,
    -0.007803,
    -0.339448,
    -1.566324,
    -0.900083,
    1.189476,
    0.040640,
    0.160543,
    2.396360,
    -2.039355,
    1.510896,
    0.404636,
    0.674408,
    -2.103158,
    -2.227387,
    1.465231,
    -0.117126,
    0.360887,
    0.178127,
    1.350719,
    0.113764,
    -1.110565,
    -0.231645,
    1.457507,
    0.753496,
    -1.770854,
    0.328372,
    -0.396900,
    0.675048,
    1.303066,
    0.699309,
    -0.067241,
    -0.985126,
    0.354867,
    1.343358,
    0.870175,
    0.422253,
    -1.053957,
    0.889617,
    1.734600,
    0.581768,
    -0.279189,
    -0.414821,
    -1.799831,
    -2.590543,
    0.764875,
    0.826651,
    -2.407472,
    -0.542216,
    0.986418,
    -0.772406,
    0.608322,
    0.484118,
    -0.197649,
    1.036752,
    1.185247,
    0.523103,
    0.689255,
    -1.043975,
    0.136412,
    0.195039,
    1.080335,
    0.265566,
    -0.773344,
    -0.789144,
    -1.345987,
    -2.306180,
    -1.248230,
    -0.283930,
    -0.768324,
    -0.322785,
    -0.392130,
    1.071855,
    -0.471498,
    -0.493762,
    2.173061,
    -2.197268,
    -0.536799,
    -0.138703,
    0.813097,
    -0.328703,
    1.169736,
    0.689737,
    1.026060,
    -0.076899,
    0.405280,
    2.519483,
    -0.761258,
    1.489383,
    -1.160192,
    -0.370218,
    0.133332,
    -0.076557,
    -0.117749,
    0.544995,
    -1.066201,
    -1.342252,
    0.446527,
    -0.467261,
    0.151412,
    1.301567,
    -1.226181,
    1.468320,
    -0.358926,
    -0.850469,
    -0.003607,
    -0.350750,
    -0.355050,
    0.880225,
    0.208755,
    -0.413253,
    2.175290,
    0.086800,
    -0.250150,
    -1.234239,
    0.564576,
    1.522826,
    -1.352975,
    2.256120,
    -1.294524,
    -2.670112,
    -0.217758,
    -0.410274,
    0.140844,
    -0.369470,
    0.068982,
    -2.583616,
    -0.436353,
    -0.675324,
    1.138981,
    -0.654994,
    0.635681,
    1.425817,
    -2.167534,
    -0.094808,
    0.765452,
    -0.832547,
    0.862634,
    0.407102,
    1.049409,
    0.784821,
    0.101867,
    -0.468220,
    -0.550625,
    0.696919,
    0.434840,
    -0.061826,
    1.454662,
    -1.356740,
    -0.166560,
    0.284115,
    -1.687568,
    -1.007123,
    -0.051677,
    0.023349,
    0.202600,
    -0.439607,
    0.856152,
    0.958333,
    0.873847,
    -0.324241,
    -1.520128,
    -0.425248,
    -0.109058,
    0.907716,
    1.510448,
    0.913742,
    0.597178,
    -1.111097,
    -0.498065,
    -1.841823,
    0.673861,
    0.227687,
    -0.042504,
    -1.387802,
    0.371324,
    0.686444,
    1.272467,
    -0.599491,
    0.094451,
    -0.646384,
    -1.388229,
    0.413567,
    -0.801613,
    1.543300,
    -0.341084,
    -0.737400,
    0.063428,
    -1.798316,
    -1.532016,
    -0.665772,
    -0.341374,
    -0.098308,
    0.386023,
    -0.272138,
    -0.390114,
    1.701697,
    0.168517,
    0.682943,
    -0.152806,
    0.621391,
    0.049899,
    1.047626,
    -0.528577,
    -0.990893,
    -0.992661,
    -1.146540,
    -0.198813,
    0.594310,
    0.642500,
    1.315570,
    -0.625254,
    0.944284,
    -0.677200,
    -0.194540,
    -1.522437,
    0.154710,
    -0.229296,
    -0.386361,
    0.965219,
    1.253874,
    -0.735047,
    0.057138,
    -1.366341,
    1.094899,
    -0.637460,
    1.500366,
    0.658026,
    -0.004457,
    0.365449,
    -1.804541,
    1.361299,
    -2.273248,
    0.873487,
    0.255751,
    0.624191,
    -0.241690,
    1.274677,
    -0.401464,
    1.927097,
    -0.588013,
    -0.591851,
    -0.939325,
    0.492618,
    1.959463,
    0.834134,
    -0.805010,
    -0.685997,
    -0.612617,
    1.176650,
    0.692450,
    0.455668,
    1.288917,
    0.643229,
    -0.299195,
    -0.949090,
    1.686617,
    -0.018553,
    1.677622,
    0.491382,
    0.338375,
    -0.097393,
    -0.454860,
    0.734472,
    1.446347,
    0.546592,
    1.125469,
    1.065215,
    0.166090,
    2.250289,
    -1.070696,
    0.387468,
    0.130743,
    -0.864462,
    0.877905,
    1.113371,
    1.886075,
    0.470970,
    0.893096,
    0.682371,
    1.534790,
    -0.918732,
    -0.522134,
    -0.207530,
    -0.946680,
    0.582679,
    -2.943238,
    -0.829847,
    2.320002,
    -0.175422,
    -0.484443,
    -0.093795,
    -0.632683,
    1.138786,
    0.883559,
    1.371643,
    -0.715177,
    1.052346,
    0.195071,
    -0.044413,
    1.553411,
    0.944296,
    -0.160694,
    -0.622545,
    -0.499234,
    -0.966386,
    -0.712309,
    0.748092,
    1.773237,
    -1.032237,
    0.142743,
    0.032737,
    -0.774804,
    -0.329870,
    -0.146271,
    0.653919,
    0.622428,
    -0.187762,
    0.212410,
    -0.087873,
    0.325521,
    0.420851,
    0.483943,
    -0.181281,
    -0.588961,
    1.193968,
    0.601703,
    0.582666,
    -0.595195,
    1.471246,
    0.859388,
    -0.348499,
    -0.081996,
    1.183889,
    0.355200,
    0.044852,
    0.186293,
    0.394174,
    -1.881695,
    -1.317253,
    0.841881,
    1.183732,
    0.586802,
    1.721661,
    1.239512,
    -0.483293,
    0.111635,
    1.173406,
    -1.963087,
    1.310844,
    1.158900,
    -0.158930,
    0.680443,
    0.579152,
    0.045349,
    -0.982037,
    0.542653,
    -0.636064,
    1.059711,
    -0.885593,
    -0.035452,
    -0.499084,
    -0.700287,
    1.451997,
    -0.217476,
    1.116121,
    -1.117299,
    0.646298,
    -0.073994,
    -0.546794,
    0.108626,
    -0.694323,
    -1.226421,
    -0.743048,
    -2.427502,
    1.517575,
    -1.158394,
    -0.538579,
    2.375455,
    0.497619,
    0.512763,
    -1.499999,
    -0.261803,
    0.673898,
    -0.357067,
    -0.195879,
    0.134348,
    -0.317118,
    -0.031894,
    0.234592,
    -0.448138,
    -0.062141,
    -1.312508,
    0.245198,
    -0.822567,
    -0.283522,
    1.708223,
    -0.117911,
    -1.386344,
    0.191300,
    -0.346022,
    -0.449868,
    -0.296405,
    -2.326301,
    0.495376,
    -0.999130,
    0.089807,
    -1.276696,
    -0.671181,
    2.054222,
    -1.230606,
    -0.554318,
    -0.616906,
    0.001364,
    -1.245640,
    -1.591905,
    0.625246,
    0.466992,
    1.331121,
    -0.222407,
    0.178328,
    -0.629109,
    -1.433548,
    -0.033970,
    -0.583609,
    -0.122857,
    -0.471770,
    -1.534022,
    -0.752365,
    -0.459719,
    -1.568377,
    -0.051257,
    -0.827628,
    0.067191,
    -1.164563,
    1.039006,
    0.604801,
    -0.882851,
    -1.302348,
    -0.164861,
    0.953924,
    0.123890,
    -1.355341,
    0.610471,
    1.380806,
    -0.724530,
    1.175300,
    -0.183323,
    0.882873,
    -0.483877,
    -0.570016,
    -0.106985,
    -1.036576,
    0.807657,
    -0.435647,
    -1.028999,
    0.220881,
    0.405438,
    -2.309606,
    -0.626019,
    0.987217,
    -0.342940,
    0.355693,
    0.335293,
    -0.971299,
    -0.446201,
    1.918526,
    -2.537864,
    -1.617646,
    -0.873627,
    -0.380247,
    3.125863,
    1.154150,
    1.910144,
    1.272173,
    -0.149902,
    -0.649982,
    -0.645632,
    -0.186774,
    0.250710,
    1.902613,
    0.925758,
    -0.328182,
    -0.605903,
    -0.757921,
    -1.072671,
    1.418379,
    -1.589543,
    -0.947182,
    -0.078584,
    -0.115093,
    -0.857960,
    0.632695,
    -0.282750,
    -0.121887,
    -0.450099,
    0.483060,
    -0.409757,
    -0.549815,
    1.437029,
    0.394743,
    0.995205,
    -0.257785,
    -0.153636,
    -0.625410,
    -0.028107,
    0.096378,
    -0.617700,
    -1.220413,
    -0.997753,
    1.836386,
    -0.772593,
    -0.041723,
    0.011175,
    -0.588766,
    -0.954976,
    1.076442,
    2.799342,
    -0.002341,
    0.687890,
    -0.388892,
    -0.744933,
    1.786768,
    -0.143405,
    -0.902211,
    -1.201965,
    -0.406494,
    1.319036,
    -0.664068,
    0.431116,
    -0.512221,
    0.051549,
    1.239580,
    -0.443563,
    0.333162,
    -0.290901,
    -0.544891,
    -0.881388,
    0.677785,
    -0.269118,
    -0.074183,
    -1.175442,
    1.857340,
    1.946025,
    0.063440,
    1.046001,
    -0.922641,
    0.082517,
    0.925039,
    -0.595475,
    -2.712142,
    1.000309,
    0.887581,
    1.608058,
    0.215343,
    -1.567605,
    -0.649852,
    -2.756485,
    1.164065,
    -0.439251,
    1.083696,
    -1.342478,
    -0.468496,
    -0.078311,
    -1.607804,
    0.523717,
    0.981937,
    1.221125,
    0.084089,
    -2.523545,
    0.610704,
    1.261619,
    -0.103947,
    -0.962651,
    -0.495358,
    -0.425452,
    0.279967,
    0.257900,
    0.451437,
    1.828811,
    -0.225153,
    2.150072,
    -1.126173,
    -0.842039,
    1.181443,
    -0.839782,
    0.556893,
    -1.542723,
    -2.937420,
    -0.567340,
    0.479442,
    -1.125719,
    1.808350,
    -0.820948,
    -0.217000,
    -0.137394,
    0.900721,
    -0.218012,
    -2.717973,
    1.380112,
    0.275537,
    -0.967246,
    -0.462184,
    -1.309536,
    -0.480075,
    0.924174,
    -0.338483,
    0.281961,
    -0.262920,
    -0.861454,
    -1.098392,
    -1.153893,
    1.050234,
    0.480438,
    0.819138,
    2.147771,
    -0.355365,
    0.457004,
    0.340738,
    0.113359,
    -1.038216,
    0.559744,
    -1.068628,
    -0.719761,
    -0.379488,
    0.042225,
    1.381365,
    -0.595613,
    0.353140,
    0.113810,
    -1.120890,
    0.496107,
    0.001931,
    1.325298,
    -0.569808,
    0.187411,
    0.487792,
    0.816792,
    0.527716,
    -0.350581,
    0.468808,
    -0.159046,
    1.253966,
    1.926409,
    -1.085278,
    -0.797992,
    -0.630374,
    0.684105,
    -1.098709,
    -0.513044,
    1.072321,
    -1.567327,
    -1.665543,
    0.649256,
    0.524279,
    -1.171082,
    -0.997033,
    0.256325,
    0.220990,
    0.616688,
    -0.829597,
    -1.635298,
    -0.859196,
    -3.009288,
    -2.951240,
    -3.144878,
    -1.181249,
    0.029377,
    -1.236881,
    -1.388147,
    -0.286305,
    -2.605263,
    -0.589906,
    -0.314805,
    0.058240,
    -0.463288,
    -1.497751,
    0.642850,
    -0.407397,
    -2.170631,
    -0.268683,
    -1.151860,
    -0.009627,
    -0.563171,
    -0.431085,
    0.350230,
    -0.725810,
    -0.794047,
    -0.628397,
    0.483508,
    0.931142,
    -2.431030,
    -0.252144,
    0.541841,
    0.699683,
    -0.348100,
    -0.155459,
    -1.138032,
    -0.446094,
    -0.735771,
    -0.876536,
    0.016392,
    0.762101,
    1.672321,
    0.481337,
    -0.423769,
    1.298730,
    0.199202,
    -0.406098,
    -0.901442,
    -0.329973,
    1.654598,
    -1.057543,
    -1.224537,
    -0.825134,
    -1.038032,
    1.351020,
    -0.521869,
    2.837745,
    1.392935,
    1.021235,
    -1.401989,
    0.586845,
    0.467632,
    0.358072,
    -0.121523,
    0.085521,
    0.611806,
    1.313907,
    1.841447,
    -1.882201,
    0.202489,
    -0.917452,
    0.480477,
    -0.085823,
    -1.062375,
    -0.881805,
    0.765760,
    -1.602304,
    0.200433,
    -0.556484,
    0.826753,
    -0.918757,
    1.403666,
    1.772977,
    1.145386,
    2.441707,
    1.119957,
    1.233733,
    2.162556,
    0.911582,
    0.734046,
    0.719840,
    -0.035057,
    -1.062427,
    0.529056,
    -1.177721,
    -0.796154,
    0.662951,
    -0.255754,
    -0.043008,
    -0.899741,
    -0.556536,
    -1.458472,
    1.648754,
    -0.824676,
    0.300783,
    1.495512,
    -2.187067,
    -1.276249,
    1.350849,
    -0.546456,
    0.065546,
    1.318106,
    0.713555,
    1.270296,
    1.297500,
    -0.574385,
    -0.441380,
    1.091609,
    -0.843371,
    -1.956589,
    0.192144,
    -2.052921,
    -0.670122,
    -0.921565,
    -0.515634,
    0.479637,
    0.239230,
    1.638299,
    -0.942276,
    0.766479,
    0.411593,
    -0.802475,
    -0.431128,
    1.712542,
    1.470032,
    0.301713,
    1.363734,
    0.006758,
    -0.522645,
    -0.735650,
    2.623729,
    2.199608,
    0.162189,
    -1.134702,
    1.664869,
    -0.006036,
    1.423851,
    -0.730539,
    2.037575,
    1.381506,
    -1.067267,
    -1.137634,
    -1.052272,
    0.219704,
    -0.864654,
    0.458935,
    0.014855,
    0.064608,
    -0.914332,
    -0.951122,
    1.045575,
    2.009314,
    2.367598,
    0.204590,
    -0.248214,
    -0.030373,
    0.543896,
    0.964496,
    -0.518879,
    0.383789,
    0.094240,
    0.714355,
    -0.199586,
    0.289942,
    -1.257036,
    0.826363,
    1.004944,
    0.227655,
    2.442700,
    -1.964809,
    2.217607,
    -1.743923,
    1.426790,
    0.008202,
    0.227628,
    0.755653,
    1.001739,
    2.429881,
    -1.035933,
    -1.020606,
    -0.414236,
    -1.053114,
    -0.542257,
    -1.866229,
    -1.626665,
    -1.012757,
    -0.208864,
    0.995512,
    0.911144,
    0.711316,
    0.703076,
    -0.166272,
    0.689892,
    1.257410,
    0.724963,
    -0.129231,
    1.129774,
    0.450014,
    -0.504611,
    -0.833311,
    -0.990159,
    1.422216,
    -1.235883,
    0.253300,
    -0.122788,
    0.464532,
    2.281850,
    0.467946,
    -0.598477,
    -0.517941,
    0.003247,
    -1.149502,
    -1.617953,
    0.774923,
    1.200406,
    -0.317808,
    -1.016331,
    -0.176428,
    0.301669,
    -0.820557,
    0.432022,
    -2.214509,
    -0.865532,
    0.017616,
    0.691469,
    1.295178,
    0.356080,
    -0.990676,
    -1.400901,
    0.075057,
    -0.079956,
    -1.165152,
    -0.088882,
    -1.375623,
    -2.017899,
    0.538841,
    -0.370242,
    0.047987,
    -1.243037,
    -0.633189,
    -1.048487,
    0.439683,
    -0.283674,
    -0.237358,
    1.145593,
    -0.711939,
    0.256034,
    2.251983,
    -0.696143,
    -0.994849,
    -1.149928,
    0.691896,
    -0.564417,
    -1.602336,
    0.061614,
    -1.356884,
    0.557358,
    -0.593779,
    0.549650,
    -0.521821,
    0.763703,
    -0.363085,
    1.093412,
    -0.505908,
    -1.297400,
    -1.444668,
    -0.323463,
    -1.522042,
    0.560114,
    0.225054,
    0.993538,
    -1.105532,
    1.169552,
    0.044125,
    1.535659,
    -0.314598,
    -0.433746,
    0.315708,
    -1.875683,
    0.844012,
    -1.265784,
    0.635369,
    -0.458905,
    -2.486280,
    2.596352,
    0.130115,
    1.444995,
    0.696326,
    -1.158168,
    -1.140682,
    -0.197282,
    0.062504,
    -1.796999,
    -1.034603,
    -1.542408,
    -0.440838,
    -2.335881,
    1.157939,
    -0.470718,
    0.062474,
    -1.663426,
    -0.765158,
    -0.480410,
    -0.898597,
    -1.127065,
    -0.515112,
    0.762604,
    -0.430657,
    1.088403,
    1.344261,
    3.001073,
    0.985873,
    -1.458419,
    -2.332736,
    0.842915,
    0.984873,
    -1.608956,
    -0.128543,
    -1.174788,
    -0.042498,
    -0.235560,
    -0.358689,
    0.369204,
    0.349432,
    2.026747,
    -0.803128,
    1.836865,
    -0.838257,
    0.122581,
    0.539175,
    2.195854,
    -1.024795,
    -0.348843,
    -0.638699,
    -0.166616,
    0.283822,
    -0.386480,
    -0.308866,
    -0.079805,
    -0.567790,
    0.580448,
    0.892171,
    0.222212,
    0.490566,
    -1.119623,
    0.093923,
    -2.049903,
    0.831866,
    0.619191,
    -1.012621,
    0.320204,
    0.020755,
    0.081629,
    0.866922,
    -0.860765,
    -0.928729,
    -1.120991,
    -1.608314,
    0.395938,
    -1.689320,
    -0.715837,
    -2.028690,
    -0.243042,
    -0.016305,
    -1.422629,
    -0.083598,
    0.835626,
    0.593342,
    -0.369856,
    1.144312,
    0.171606,
    -0.222832,
    -0.628655,
    0.069898,
    -1.485726,
    0.255845,
    -2.485085,
    0.583528,
    -0.153290,
    -1.043775,
    -0.641985,
    0.259254,
    -0.966196,
    -0.414523,
    -2.496265,
    -1.290471,
    0.211047,
    -0.045851,
    0.596364,
    0.564899,
    0.233068,
    -0.062476,
    -0.492173,
    0.634185,
    1.013364,
    0.027601,
    0.303864,
    0.602151,
    -0.180577,
    -0.115392,
    0.608373,
    -1.584650,
    -0.894028,
    -1.214659,
    -1.061352,
    -0.635197,
    -1.213450,
    -0.877973,
    -0.886409,
    -0.923169,
    -1.121306,
    0.042771,
    -1.254725,
    -0.836814,
    -1.114904,
    -0.048740,
    -1.401545,
    0.500868,
    -0.112560,
    -0.270718,
    -0.958647,
    0.363091,
    -2.295075,
    0.406976,
    0.378522,
    -0.406662,
    -0.568506,
    0.459665,
    -0.551299,
    -0.676759,
    -0.806610,
    0.806853,
    -0.075314,
    0.296221,
    0.779081,
    0.329972,
    0.351222,
    0.355969,
    -0.128684,
    -0.814897,
    1.279664,
    -0.879549,
    -1.339309,
    1.502051,
    -0.749745,
    0.272401,
    0.022644,
    1.186631,
    -0.401887,
    -0.058617,
    0.701201,
    1.957222,
    -0.517294,
    -2.307539,
    0.075832,
    1.446345,
    -0.438704,
    -1.279731,
    -0.341431,
    -0.077432,
    -1.279103,
    -0.610685,
    0.586307,
    -1.564265,
    0.522445,
    1.384378,
    2.681810,
    0.170115,
    -0.513525,
    -1.043709,
    0.504227,
    0.079473,
    -0.286835,
    -0.304174,
    1.384796,
    1.137940,
    -0.688569,
    -1.108367,
    0.212303,
    0.585899,
    0.745143,
    0.779804,
    0.731040,
    -0.830058,
    -0.962539,
    0.939996,
    -1.961167,
    -0.571012,
    2.706164,
    0.357344,
    -0.277274,
    -0.258685,
    -0.262284,
    -2.669901,
    -2.302706,
    0.560292,
    0.873882,
    -0.526181,
    0.790639,
    -2.030027,
    0.737248,
    -0.039987,
    0.252774,
    -0.029315,
    0.004853,
    -0.637244,
    -1.454852,
    0.205605,
    1.525677,
    0.782875,
    -0.375963,
    -0.432007,
    0.845736,
    1.328593,
    0.980284,
    0.561895,
    -0.982875,
    -0.705258,
    0.048416,
    0.890444,
    -0.720888,
    0.911859,
    0.715775,
    -0.105689,
    0.903573,
    0.518682,
    0.061584,
    1.495949,
    -0.410041,
    -0.867078,
    -0.654565,
    -0.364100,
    -0.666419,
    0.038203,
    0.218989,
    -0.146965,
    -0.251786,
    -1.540807,
    -0.925238,
    1.316123,
    -0.154553,
    -1.900048,
    -0.046842,
    -0.807098,
    0.831396,
    0.761693,
    -0.733022,
    -0.151463,
    0.406942,
    0.304371,
    0.221990,
    -0.492891,
    1.353511,
    0.085376,
    1.272138,
    1.397792,
    0.371910,
    0.332872,
    1.149687,
    0.143551,
    -1.231927,
    0.914006,
    0.267156,
    -0.876101,
    -0.266850,
    0.086194,
    1.707369,
    0.333903,
    1.020748,
    -1.125335,
    -1.602624,
    -0.274075,
    -0.814524,
    0.830338,
    0.784423,
    1.786613,
    -0.424829,
    -0.565331,
    2.137454,
    -1.449800,
    0.076201,
    -1.134799,
    -0.622668,
    -0.297643,
    0.509505,
    0.598456,
    0.856665,
    -0.078195,
    0.051289,
    -1.968735,
    -1.234170,
    -1.024739,
    -1.193198,
    -0.068907,
    -0.178971,
    -0.379870,
    -0.644185,
    -0.399442,
    -0.765697,
    0.549867,
    -0.080554,
    -0.708883,
    0.021408,
    -1.759070,
    1.259879,
    -1.324933,
    1.740991,
    2.372557,
    0.127132,
    -0.049233,
    0.237962,
    0.141985,
    0.450879,
    -0.983407,
    -0.392993,
    1.000998,
    0.355291,
    -1.721903,
    -0.338421,
    0.571705,
    -0.106941,
    -0.707634,
    -0.240631,
    0.728574,
    0.082346,
    0.972068,
    0.771180,
    -0.193822,
    1.937243,
    -0.143278,
    -0.487428,
    -0.378101,
    1.239914,
    0.848778,
    0.489481,
    -0.044798,
    -0.388606,
    -0.152587,
    -2.696154,
    0.348041,
    -1.161859,
    1.227417,
    0.815659,
    0.583220,
    0.252335,
    0.133172,
    0.625217,
    -1.779734,
    0.460446,
    0.216185,
    1.171671,
    -0.299079,
    -0.498411,
    -2.361525,
    0.379862,
    0.575843,
    1.530581,
    -0.298157,
    -0.775176,
    -0.236525,
    -0.515049,
    -0.673983,
    1.585822,
    -0.966728,
    0.193423,
    0.270035,
    -0.569245,
    1.947738,
    0.737444,
    0.881016,
    -0.980168,
    -0.778067,
    -0.505880,
    0.471831,
    -0.369280,
    -1.380967,
    -0.002774,
    -0.617744,
    0.410753,
    0.395420,
    -0.595010,
    -1.146139,
    0.222116,
    -0.888014,
    2.501068,
    0.354792,
    0.661859,
    -1.023159,
    0.280703,
    -0.244263,
    -0.612555,
    1.502427,
    0.395245,
    1.124068,
    0.166141,
    1.551110,
    -1.457668,
    -2.050064,
    1.480669,
    1.189749,
    1.707046,
    -1.020397,
    -0.140105,
    1.367338,
    1.410818,
    -0.965604,
    0.966121,
    1.603095,
    -1.083310,
    -0.899812,
    -0.231985,
    -0.485144,
    0.528665,
    -0.393580,
    -1.104483,
    1.364856,
    -1.724970,
    0.517092,
    -1.005278,
    1.379426,
    0.254264,
    0.518010,
    -1.622824,
    -1.458115,
    -0.913974,
    -0.537831,
    -0.967649,
    1.234494,
    0.531362,
    -0.869099,
    0.585646,
    -1.648645,
    -1.356271,
    0.494574,
    1.075009,
    1.270865,
    2.289115,
    -0.583776,
    -0.020697,
    -0.162035,
    1.139832,
    -0.291527,
    -1.115359,
    -1.574898,
    -1.848636,
    0.074203,
    1.070876,
    -0.628807,
    -1.454250,
    -1.300906,
    -0.460345,
    -0.105301,
    0.869019,
    0.249482,
    0.879190,
    -0.234453,
    -1.766769,
    -0.445945,
    -0.500343,
    0.153448,
    -1.335363,
    1.694419,
    0.991324,
    -0.048341,
    -1.461017,
    0.844280,
    -0.069060,
    0.326066,
    -0.953125,
    -0.073971,
    -1.409803,
    0.263861,
    -0.929115,
    -0.568326,
    -0.770724,
    1.079338,
    0.418957,
    0.082092,
    1.481957,
    -0.343047,
    0.248777,
    0.399015,
    0.500336,
    -0.567230,
    -0.790659,
    -1.618433,
    -0.160169,
    0.072489,
    -0.557825,
    -0.350662,
    1.224587,
    1.142198,
    -0.730396,
    1.990612,
    -0.391515,
    1.257657,
    0.582599,
    -1.467276,
    -0.192959,
    -0.031552,
    -1.073244,
    -0.213043,
    -1.227904,
    -0.604901,
    0.542376,
    0.489633,
    0.630464,
    1.404052,
    -0.179144,
    -2.016978,
    -0.986698,
    0.531707,
    0.812692,
    1.004283,
    0.202304,
    -0.658381,
    -0.341659,
    0.330964,
    -1.104241,
    0.968384,
    -0.433028,
    -1.436006,
    0.402676,
    0.637751,
    0.613095,
    0.835253,
    -1.831088,
    0.385150,
    -0.354527,
    0.018660,
    0.430902,
    -1.615235,
    1.138914,
    -0.572799,
    0.128670,
    0.721027,
    1.389967,
    1.611037,
    -1.057618,
    0.555427,
    -1.179909,
    -0.551443,
    -0.742081,
    -1.257235,
    0.887879,
    -0.007809,
    0.065853,
    -0.480072,
    1.184012,
    -0.097492,
    -0.758613,
    -0.418416,
    -0.691949,
    0.537412,
    -1.696800,
    0.618065,
    0.093865,
    -1.101031,
    2.917946,
    -1.996143,
    -1.082300,
    -0.523234,
    -0.273932,
    -0.325033,
    -0.527794,
    0.866487,
    1.203500,
    0.385516,
    0.849259,
    -0.808916,
    -0.626379,
    -0.034635,
    1.740754,
    -1.422103,
    1.615686,
    -0.739576,
    -0.113359,
    -0.913555,
    -0.885885,
    1.675145,
    0.358157,
    0.169431,
    0.412628,
    1.125810,
    1.566697,
    0.819309,
    1.017801,
    -0.419810,
    0.097450,
    -0.667562,
    0.939711,
    1.462715,
    0.911392,
    0.201123,
    0.119962,
    0.707726,
    -1.752764,
    2.266003,
    -1.096145,
    -1.541688,
    0.286264,
    -1.046187,
    0.303690,
    2.013839,
    -1.886725,
    1.349603,
    0.308988,
    1.531189,
    0.243990,
    -0.370842,
    -0.706855,
    0.045144,
    1.235386,
    0.214173,
    -1.652074,
    -1.662103,
    -0.041197,
    0.516425,
    1.152287,
    -0.453895,
    -1.113932,
    -0.785215,
    -1.825184,
    0.564377,
    -0.716580,
    -1.884530,
    0.723502,
    -0.829061,
    -1.663187,
    -0.049867,
    -1.489880,
    0.971941,
    -1.514500,
    -0.839627,
    1.264279,
    0.495416,
    -0.190451,
    1.022159,
    -0.295805,
    0.310904,
    1.168375,
    1.592665,
    -0.970089,
    1.504820,
    -0.855733,
    1.311028,
    0.786361,
    1.063877,
    0.719323,
    -0.082510,
    0.275730,
    -0.275280,
    0.971377,
    0.035717,
    -0.392271,
    -0.751422,
    -1.976292,
    -2.343046,
    0.659801,
    1.654116,
    -0.160143,
    0.447901,
    1.380987,
    0.565001,
    0.577443,
    1.356779,
    1.567509,
    0.242994,
    -0.610188,
    -0.589168,
    0.579072,
    -1.377380,
    0.469594,
    0.868857,
    0.512314,
    1.770472,
    -0.972337,
    -0.742859,
    -0.194258,
    2.048639,
    -0.699296,
    0.319804,
    0.913011,
    -0.042493,
    -1.025866,
    -0.817244,
    1.833483,
    -0.504599,
    -0.224918,
    -0.759317,
    1.238756,
    -0.159339,
    -2.179944,
    1.685803,
    0.840891,
    0.967886,
    -0.551737,
    -0.331459,
    -0.205541,
    -0.916184,
    1.498654,
    2.273471,
    0.115987,
    -0.104657,
    2.120728,
    0.104359,
    -1.004854,
    -0.583888,
    0.171137,
    -1.228009,
    -2.912922,
    -0.161063,
    -0.332847,
    -1.413492,
    0.837182,
    1.059746,
    -0.597460,
    1.132801,
    -1.585763,
    -2.171311,
    1.002594,
    -0.572438,
    1.148879,
    0.296728,
    -0.682093,
    0.080957,
    0.245479,
    -0.326258,
    0.113801,
    1.091661,
    -0.049137,
    0.348507,
    1.754673,
    0.857836,
    -0.868414,
    0.155970,
    -0.991004,
    0.030943,
    -1.592645,
    -0.550681,
    1.442881,
    -0.303648,
    -0.403386,
    -0.262801,
    0.802287,
    0.439490,
    -0.316715,
    0.451505,
    1.250989,
    -0.113107,
    0.783189,
    0.198557,
    -0.969429,
    0.303601,
    -1.257914,
    1.089081,
    0.601038,
    -1.007678,
    -0.679291,
    0.012048,
    0.131891,
    0.917121,
    1.094524,
    1.912068,
    0.010586,
    1.198180,
    -0.517511,
    0.486920,
    -0.241851,
    1.254876,
    -0.862463,
    0.352062,
    -0.791598,
    -0.158479,
    0.230154,
    0.819083,
    -0.658491,
    -0.097966,
    -0.807184,
    0.443733,
    -0.060178,
    2.090056,
    0.351088,
    0.259977,
    -0.483949,
    -1.052603,
    -0.115255,
    -1.427962,
    -1.274564,
    1.068971,
    -0.603324,
    0.399753,
    -1.311301,
    0.020226,
    1.234128,
    0.020384,
    -1.221854,
    -1.586142,
    -0.326809,
    0.324157,
    0.171108,
    -0.610126,
    1.788486,
    -0.141738,
    0.183030,
    -1.023760,
    -0.757010,
    0.902439,
    -0.631816,
    0.375709,
    0.890712,
    0.293265,
    0.023940,
    1.330233,
    -1.181550,
    -0.112274,
    -0.616184,
    0.589612,
    -0.583418,
    0.752553,
    1.361732,
    0.964292,
    0.814314,
    -2.217231,
    0.184391,
    -0.564815,
    0.716738,
    -0.758101,
    0.119948,
    0.812975,
    -1.338144,
    1.350899,
    -0.740026,
    -0.188057,
    -0.452990,
    -1.236853,
    0.833623,
    1.558294,
    0.318789,
    -0.109286,
    0.095376,
    -1.148123,
    0.716351,
    0.628853,
    0.862376,
    0.815890,
    -0.186050,
    0.909131,
    -0.861571,
    0.700385,
    -0.481431,
    -2.675355,
    1.412044,
    -0.816538,
    -0.442777,
    2.277721,
    0.655028,
    1.882735,
    1.342056,
    -0.858829,
    -0.354451,
    -0.434210,
    0.825482,
    -0.444056,
    0.508777,
    -0.283954,
    -0.606975,
    2.621359,
    0.271060,
    -0.137141,
    -0.537593,
    0.052624,
    1.802522,
    0.020026,
    -0.120328,
    -0.542339,
    -0.292921,
    2.129451,
    0.694641,
    -1.512110,
    0.358774,
    -2.269324,
    -2.092920,
    -0.063772,
    -1.997728,
    -0.456298,
    -0.629498,
    1.051509,
    0.180696,
    0.076068,
    0.520954,
    0.331183,
    2.279328,
    -0.851584,
    -0.280264,
    1.208899,
    -1.152019,
    0.989088,
    1.005809,
    0.385360,
    -0.242441,
    0.468788,
    0.363699,
    -0.530396,
    0.605479,
    0.773577,
    -1.196422,
    -0.068410,
    -0.019738,
    0.549772,
    0.827337,
    -0.768454,
    -0.837761,
    0.843224,
    -0.952403,
    -1.205927,
    2.017581,
    0.923880,
    -1.156002,
    1.158492,
    1.575844,
    0.400642,
    -0.146105,
    0.419105,
    0.144630,
    0.195931,
    0.934570,
    0.196599,
    0.080260,
    -0.581574,
    -0.098743,
    -0.238085,
    0.347936,
    0.836256,
    0.202239,
    -0.757817,
    0.379950,
    -0.027332,
    -1.382590,
    -1.030200,
    0.281215,
    0.857454,
    -0.048206,
    -0.452461,
    1.282551,
    1.145396,
    1.471901,
    -0.901918,
    1.713131,
    1.834062,
    1.272936,
    0.507329,
    -0.167086,
    1.516751,
    -0.516531,
    0.346840,
    -0.538592,
    -0.184199,
    -0.637985,
    1.132720,
    0.026707,
    -1.187341,
    0.208102,
    -0.210591,
    1.228691,
    -0.252725,
    -1.024309,
    1.334826,
    -0.177652,
    0.473250,
    1.022952,
    -1.706835,
    0.750694,
    -1.296728,
    1.699212,
    0.976376,
    0.983301,
    -1.315226,
    0.322906,
    0.052240,
    0.413018,
    0.729034,
    -0.248561,
    -0.928753,
    -0.848006,
    -0.000319,
    2.885787,
    0.436899,
    -1.017180,
    -0.417904,
    1.640297,
    -2.062517,
    0.044255,
    0.193711,
    -0.601907,
    1.653342,
    -1.568577,
    0.912906,
    1.453935,
    0.601273,
    -0.429584,
    -0.332637,
    -0.495186,
    0.015143,
    -0.182895,
    -1.454366,
    1.255880,
    0.253486,
    -1.303610,
    0.490175,
    -0.088318,
    -1.339136,
    -0.281934,
    0.201814,
    0.183096,
    1.023881,
    -0.599080,
    -1.010912,
    1.696472,
    -0.659618,
    -1.079463,
    0.628085,
    -0.261421,
    -1.449159,
    0.815804,
    1.023865,
    1.556957,
    -1.376579,
    1.080409,
    -2.576406,
    0.605847,
    0.213337,
    -1.176061,
    -1.721448,
    1.331687,
    -1.690534,
    -1.029022,
    -1.879155,
    0.001155,
    -0.284377,
    0.461820,
    -0.297414,
    -0.745835,
    0.758981,
    -0.296765,
    -0.943966,
    -0.648181,
    0.733657,
    -1.257819,
    -1.003374,
    0.320769,
    0.739232,
    0.714733,
    0.540870,
    -0.298949,
    0.593990,
    -0.860560,
    1.696091,
    -0.398693,
    0.064392,
    1.223994,
    -0.951730,
    0.515770,
    0.862794,
    0.110926,
    -0.085736,
    0.030366,
    -0.522583,
    -1.538132,
    -0.519347,
    -1.128397,
    -0.210823,
    -0.275051,
    0.157029,
    0.072630,
    -1.127418,
    0.851592,
    0.439048,
    -0.905421,
    1.624290,
    0.021880,
    -0.938383,
    -1.079453,
    -0.419051,
    1.366004,
    0.648672,
    -1.414182,
    -0.091393,
    1.229069,
    0.009459,
    -0.179664,
    0.132458,
    -0.341468,
    0.623684,
    0.913953,
    0.971871,
    2.384646,
    0.527489,
    0.091703,
    0.486169,
    0.069456,
    0.553381,
    0.212116,
    -1.167243,
    0.938245,
    -0.267394,
    -2.611165,
    0.149540,
    1.557499,
    1.076377,
    0.757220,
    1.175039,
    0.262302,
    1.254112,
    -0.673517,
    -0.935075,
    1.698720,
    -0.500221,
    1.107225,
    -0.762477,
    1.168831,
    -0.413255,
    -0.846427,
    -1.310999,
    0.003225,
    0.832993,
    -1.077522,
    -0.527817,
    -1.065417,
    0.550034,
    0.297659,
    0.247481,
    1.846428,
    0.328973,
    1.211317,
    -2.282763,
    -1.249266,
    -0.949713,
    -0.940878,
    -0.343995,
    1.253407,
    -1.927044,
    0.074599,
    0.473732,
    1.326281,
    2.215871,
    -0.946346,
    -0.090644,
    1.934521,
    -1.846884,
    -0.302323,
    0.098137,
    0.254594,
    0.336404,
    0.912719,
    0.247144,
    -0.642160,
    -1.017966,
    -1.912915,
    1.102259,
    0.873257,
    0.235997,
    0.846384,
    -0.780281,
    1.345331,
    0.058417,
    -0.884631,
    -0.095554,
    1.503903,
    -0.839573,
    0.398665,
    -1.431840,
    -1.474276,
    -1.356976,
    1.887362,
    0.756501,
    -1.091938,
    1.128368,
    -1.225879,
    0.030594,
    0.073342,
    0.397354,
    1.555289,
    -0.870170,
    -0.397552,
    -0.061547,
    -0.992688,
    -0.735617,
    -0.577025,
    -0.422774,
    -0.037698,
    0.427202,
    -0.032494,
    -1.888272,
    -0.093123,
    1.160179,
    -2.478305,
    0.936875,
    -0.528386,
    1.349593,
    -2.600777,
    -0.844411,
    -0.645498,
    -1.341278,
    1.204216,
    1.101294,
    -0.736313,
    0.503536,
    -1.244747,
    0.244803,
    0.976218,
    -0.760465,
    -0.523310,
    0.522610,
    -0.858138,
    -1.615251,
    0.097609,
    1.105423,
    0.321285,
    0.915043,
    -0.697807,
    -0.216810,
    0.207963,
    -0.880955,
    0.142635,
    -0.545773,
    1.422646,
    -0.613944,
    0.841559,
    -1.560698,
    -0.703435,
    1.282157,
    -0.097041,
    0.012309,
    1.262477,
    0.436742,
    1.969640,
    -0.183938,
    -1.006364,
    0.496754,
    -0.783656,
    -0.792117,
    -0.875224,
    -1.142097,
    1.059453,
    -1.207430,
    -1.520044,
    0.355646,
    -0.810676,
    -1.081472,
    0.899414,
    0.927704,
    0.107614,
    -0.305504,
    0.267860,
    0.912264,
    -0.313634,
    -0.790150,
    -0.977824,
    -1.119263,
    -0.633155,
    -0.308672,
    -0.124215,
    0.181118,
    -2.210832,
    2.326897,
    -0.280701,
    0.505534,
    -0.134933,
    -0.397623,
    1.604711,
    -0.145078,
    1.037883,
    -1.427938,
    -1.965476,
    -0.156171,
    -1.660162,
    -1.637056,
    0.800677,
    0.632589,
    -0.174807,
    0.616103,
    0.095761,
    -0.667873,
    1.349155,
    0.850585,
    -1.229717,
    -0.116843,
    -0.296351,
    0.554839,
    0.727468,
    -0.967987,
    0.207540,
    -1.071097,
    1.323085,
    1.450250,
    -0.311759,
    0.622851,
    -1.694528,
    -0.884075,
    -0.105793,
    -0.753044,
    -1.406064,
    -0.828932,
    -0.185670,
    -0.715201,
    -0.246472,
    0.300264,
    -0.777369,
    -0.588749,
    2.491681,
    0.307627,
    0.098930,
    1.218651,
    -1.335018,
    -0.751265,
    0.520334,
    0.600724,
    -0.964558,
    -0.593467,
    -0.256032,
    1.381344,
    1.934568,
    -1.038718,
    0.167827,
    1.173602,
    -0.299559,
    1.628689,
    -1.909129,
    1.685890,
    2.838335,
    0.457366,
    0.157211,
    0.718115,
    0.156513,
    3.433555,
    0.180623,
    0.633260,
    1.579881,
    0.668735,
    1.783472,
    0.663024,
    0.956280,
    0.080780,
    0.385791,
    0.465177,
    0.139869,
    0.907574,
    0.878969,
    -1.527706,
    -0.117174,
    -1.515706,
    0.649029,
    -1.000838,
    -1.497046,
    0.085324,
    -0.212646,
    -0.116025,
    0.629258,
    1.634877,
    -0.018874,
    -0.975845,
    0.685550,
    -1.217402,
    -1.237785,
    -1.757750,
    -0.284358,
    -1.183437,
    -0.555901,
    -0.973202,
    1.593685,
    2.190283,
    0.727743,
    -1.328396,
    2.181705,
    -1.018417,
    0.141345,
    0.407896,
    -0.915837,
    0.620041,
    0.100818,
    -0.544505,
    -0.581134,
    0.442798,
    0.556993,
    0.645663,
    0.218234,
    0.785569,
    0.638186,
    0.194798,
    -0.592218,
    0.217474,
    -0.608428,
    0.732811,
    -0.804611,
    -0.395691,
    -1.614841,
    0.568572,
    -1.457719,
    0.154758,
    -0.256294,
    -1.591879,
    0.178618,
    -0.564431,
    -1.285328,
    0.351972,
    -0.279590,
    0.225118,
    -0.465546,
    -0.795690,
    -2.467192,
    -1.188459,
    0.695095,
    0.522624,
    1.543338,
    1.407581,
    -0.089429,
    0.682524,
    -1.333677,
    -2.615953,
    0.791560,
    -0.189824,
    0.232778,
    -2.811034,
    0.615976,
    -0.811652,
    -0.982483,
    -0.714530,
    -2.601467,
    -0.195230,
    -1.046106,
    -1.046577,
    -0.141855,
    -1.072124,
    -1.261933,
    -0.085135,
    -0.212714,
    0.564398,
    0.630934,
    -0.516038,
    -1.264414,
    -0.634593,
    0.576720,
    0.028324,
    -0.502026,
    0.364375,
    0.721982,
    0.984963,
    -1.664244,
    1.299583,
    1.600346,
    -1.146408,
    0.386229,
    1.934693,
    -0.668965,
    0.777484,
    -1.670365,
    0.204919,
    -0.555962,
    0.338679,
    -3.286759,
    -0.294589,
    1.525612,
    1.516392,
    -1.121563,
    0.284813,
    -0.998329,
    0.764202,
    -0.949947,
    -0.017369,
    -0.949253,
    -1.850212,
    0.749132,
    0.424551,
    -0.687533,
    0.349180,
    -1.205813,
    -1.075131,
    -0.063119,
    -0.994821,
    -0.205216,
    1.278443,
    0.847476,
    0.363125,
    -0.347779,
    -0.174201,
    -0.290422,
    -2.238301,
    1.590823,
    -0.008501,
    -0.691010,
    -1.163527,
    -2.684705,
    0.660570,
    0.686912,
    -0.825047,
    0.178844,
    -1.408176,
    0.144906,
    -0.152206,
    -1.537098,
    0.933631,
    0.049908,
    -0.003858,
    0.217807,
    -0.019422,
    1.249391,
    -1.548256,
    -0.325791,
    1.439622,
    0.357606,
    1.643921,
    2.167292,
    -1.403788,
    1.536319,
    1.738355,
    -1.149731,
    1.869792,
    0.181939,
    -1.732705,
    0.824161,
    0.592985,
    -0.522201,
    -2.413214,
    1.149170,
    -0.630134,
    1.159786,
    0.887643,
    1.014548,
    -1.049794,
    0.824163,
    -0.550086,
    -0.056655,
    0.750996,
    0.162372,
    -2.100034,
    -0.275733,
    2.131095,
    -0.307219,
    -0.523114,
    -0.659393,
    0.620515,
    -1.467447,
    0.300693,
    0.533064,
    1.000210,
    -2.416296,
    -1.336998,
    0.024808,
    -0.396180,
    -0.784577,
    0.072049,
    0.942099,
    2.205949,
    0.344718,
    -0.554587,
    0.304647,
    0.238420,
    0.521682,
    1.593655,
    -0.763589,
    1.300861,
    0.342403,
    -1.324199,
    1.134610,
    -0.464399,
    -0.216462,
    0.309474,
    0.723172,
    -0.826288,
    0.461409,
    1.226420,
    0.262243,
    -0.142587,
    -0.988096,
    2.328458,
    0.377248,
    1.824939,
    1.609392,
    0.378213,
    -0.244728,
    -1.862978,
    -0.390628,
    -1.175733,
    0.105506,
    1.202969,
    1.838281,
    0.024193,
    -0.507683,
    1.899214,
    0.131429,
    -0.303885,
    -0.655474,
    -0.766676,
    2.111137,
    -0.614650,
    0.562369,
    1.368270,
    -0.585144,
    0.355750,
    1.008640,
    -2.121422,
    -0.286323,
    -0.074130,
    0.028160,
    -0.989116,
    -0.111220,
    0.849753,
    0.294402,
    0.486647,
    0.024207,
    -0.173134,
    0.416955,
    0.234572,
    0.397907,
    0.971963,
    -0.278511,
    0.296948,
    0.970172,
    -0.791396,
    -1.616963,
    -0.380848,
    0.988151,
    1.243540,
    1.340384,
    -1.461491,
    -0.723418,
    0.441672,
    0.330334,
    0.057582,
    1.816839,
    -1.196172,
    0.084691,
    1.011494,
    -1.261556,
    1.460977,
    1.985268,
    0.746701,
    0.681138,
    -0.565691,
    0.014032,
    0.158371,
    0.906011,
    0.444121,
    1.024992,
    -0.089752,
    1.679858,
    1.479144,
    -0.227756,
    0.894886,
    0.042459,
    0.900672,
    1.083291,
    0.716991,
    0.913824,
    -0.454636,
    -0.381322,
    -0.028708,
    -0.613928,
    0.863889,
    -0.208089,
    1.170914,
    0.534206,
    -0.544898,
    0.272151,
    -0.448811,
    -1.496749,
    -0.799244,
    1.388473,
    -0.186497,
    1.169994,
    -0.172078,
    0.495189,
    1.348787,
    -0.060004,
    0.450149,
    -0.551437,
    0.864471,
    1.177591,
    0.840259,
    -0.841275,
    0.787708,
    -0.154885,
    -1.002691,
    0.392395,
    -0.299847,
    -0.863433,
    0.725140,
    0.704811,
    0.376457,
    0.060022,
    1.299134,
    0.229496,
    0.376581,
    -0.405260,
    -0.410354,
    -1.410387,
    -0.694238,
    0.108341,
    0.279214,
    1.573181,
    0.227682,
    -1.123061,
    1.521060,
    -0.727983,
    0.266617,
    -0.117029,
    -0.458145,
    -0.652179,
    -0.730630,
    -0.280626,
    1.382145,
    0.040513,
    -0.239225,
    -1.742397,
    -1.387677,
    -1.984829,
    0.131045,
    -0.417087,
    -0.907685,
    -0.934325,
    0.795987,
    0.284593,
    -0.589395,
    1.180944,
    0.041546,
    1.149139,
    0.590156,
    0.784211,
    0.624197,
    -0.678954,
    0.720608,
    -0.116692,
    0.658499,
    0.395555,
    0.267981,
    -1.327498,
    1.557620,
    -0.092072,
    -0.155346,
    0.337795,
    0.247523,
    0.172015,
    -0.352172,
    0.392461,
    -0.608767,
    -1.244726,
    -1.186007,
    0.371087,
    0.440739,
    -0.409142,
    1.348448,
    -1.048621,
    1.784220,
    0.995659,
    0.312431,
    -1.526262,
    -1.323566,
    0.622223,
    -1.072185,
    2.134535,
    0.927467,
    1.062980,
    0.127244,
    -0.402216,
    -0.105923,
    0.764128,
    1.019813,
    -0.020821,
    -0.115429,
    -1.406667,
    -0.242457,
    -1.310662,
    2.182434,
    0.003681,
    1.819923,
    0.900794,
    1.765947,
    -0.208750,
    -0.183318,
    -1.665165,
    -1.400603,
    -0.220644,
    0.287380,
    0.220885,
    1.425830,
    0.731317,
    1.449678,
    1.836789,
    0.438082,
    -0.524026,
    0.993897,
    0.019584,
    -0.032189,
    1.925624,
    0.085353,
    2.341202,
    2.770498,
    1.032485,
    -0.215400,
    0.490187,
    -0.853623,
    -0.251758,
    -0.494681,
    0.217423,
    -0.076107,
    -1.028984,
    -0.377327,
    -0.833304,
    0.602541,
    -0.525398,
    -0.414813,
    0.319637,
    1.910198,
    -0.131269,
    1.618760,
    1.954651,
    1.442529,
    0.217017,
    2.017925,
    0.476027,
    0.856423,
    -1.574754,
    0.920332,
    0.039250,
    0.271594,
    -0.346538,
    -1.879597,
    -0.708823,
    0.037453,
    -0.158624,
    1.069662,
    -0.151492,
    0.535710,
    1.612526,
    0.084130,
    0.614095,
    0.106428,
    1.934577,
    0.542160,
    -0.610676,
    -0.377375,
    -0.992640,
    0.275064,
    2.274665,
    1.066524,
    0.692608,
    1.230865,
    0.546277,
    0.692112,
    1.180900,
    0.432686,
    0.103763,
    -2.219055,
    -0.480865,
    -1.233097,
    0.926681,
    -0.036768,
    -1.065250,
    1.592773,
    1.558904,
    1.631213,
    -0.786639,
    0.246842,
    -2.937304,
    -0.022807,
    -0.203436,
    0.411022,
    1.074853,
    0.420635,
    1.843031,
    -1.350482,
    -0.521668,
    0.809586,
    1.725462,
    0.635473,
    -1.290721,
    -0.988607,
    0.465143,
    0.864213,
    0.169043,
    -1.046861,
    -0.853307,
    0.616860,
    -1.417765,
    1.322657,
    -0.929077,
    -0.849190,
    1.081571,
    1.278789,
    1.069409,
    -0.145353,
    -1.435329,
    0.120378,
    1.326844,
    0.162512,
    1.247019,
    -0.680321,
    0.321594,
    -1.703306,
    -0.450419,
    -0.553711,
    0.179581,
    -0.422032,
    1.296073,
    -2.253573,
    0.542781,
    -0.113770,
    -0.394554,
    -0.125449,
    -0.329497,
    0.867692,
    -0.412522,
    1.130737,
    -1.056013,
    -0.403154,
    1.251194,
    -0.152370,
    1.551133,
    -0.197969,
    -0.020769,
    1.541783,
    -0.933750,
    -1.019317,
    -0.611667,
    -0.945651,
    0.823361,
    1.291777,
    0.045197,
    1.516868,
    1.703852,
    0.638922,
    2.675490,
    0.873867,
    -0.673338,
    1.829825,
    -2.363425,
    -0.113136,
    0.788010,
    0.661421,
    -0.924455,
    -1.168185,
    -2.728136,
    -0.943554,
    -0.482847,
    0.712587,
    0.678973,
    1.400683,
    0.526257,
    -0.818123,
    -0.625018,
    0.854301,
    0.031177,
    -0.677920,
    0.867983,
    -1.589640,
    1.572864,
    0.525065,
    -0.427622,
    -0.341799,
    0.173379,
    -0.680071,
    -1.850888,
    -0.720179,
    0.709213,
    -0.206773,
    -1.161769,
    0.816599,
    -1.118290,
    -0.827945,
    1.018532,
    -2.010535,
    -1.852944,
    -1.219774,
    1.052360,
    -0.193522,
    1.194273,
    1.127943,
    2.030962,
    -1.096994,
    0.677110,
    0.909147,
    -0.796430,
    -0.655022,
    0.025230,
    0.344730,
    -0.479827,
    -0.514934,
    -0.500556,
    -0.251563,
    0.256113,
    0.245902,
    -0.026045,
    -0.602445,
    0.060822,
    0.781168,
    -0.236000,
    0.778115,
    -1.789793,
    1.313674,
    1.061083,
    -0.174894,
    0.331684,
    -2.361797,
    -0.826535,
    0.550808,
    2.138954,
    -0.316810,
    1.127797,
    0.422416,
    1.558276,
    0.262497,
    0.418752,
    -1.710558,
    0.606637,
    0.500813,
    0.327840,
    0.866189,
    0.182731,
    0.200720,
    1.613239,
    0.130496,
    0.591706,
    1.109405,
    -0.532444,
    -1.175018,
    0.694285,
    -2.020855,
    -0.042301,
    0.536157,
    -0.043118,
    0.483084,
    0.250090,
    -0.341384,
    -0.504459,
    -0.186387,
    0.402405,
    -0.775710,
    0.751680,
    -1.420415,
    1.416767,
    -0.718840,
    0.501598,
    -0.845265,
    -1.782790,
    -0.061990,
    0.262522,
    0.554359,
    -1.692677,
    1.031705,
    -1.133660,
    -0.723857,
    -2.667471,
    -0.344124,
    0.222958,
    0.322225,
    -0.956751,
    2.003451,
    0.749791,
    0.705433,
    0.230000,
    0.793292,
    -0.208514,
    -1.670740,
    0.505781,
    -0.215415,
    -0.620542,
    0.691432,
    -0.667798,
    -0.736205,
    -0.340008,
    0.730330,
    1.130496,
    -0.446590,
    0.530682,
    0.615429,
    0.767882,
    -0.434191,
    0.293113,
    0.537412,
    0.905751,
    -0.731775,
    -0.552049,
    -0.526430,
    -0.025750,
    1.441389,
    0.356034,
    2.234496,
    0.057506,
    -2.009392,
    -1.422795,
    0.864189,
    0.539526,
    -0.244826,
    -1.416304,
    -0.722229,
    0.991996,
    0.337130,
    -1.536383,
    -0.579005,
    -0.220900,
    -1.145346,
    0.506268,
    1.021842,
    -0.410203,
    -0.465849,
    1.184510,
    0.243741,
    -0.869318,
    -0.516945,
    -0.095086,
    2.341080,
    0.083175,
    1.271726,
    0.377351,
    0.343714,
    -0.951690,
    -1.274186,
    -0.354377,
    1.617664,
    -1.178710,
    0.181658,
    0.057644,
    -1.008817,
    0.601498,
    -0.054030,
    1.087535,
    -2.256366,
    -0.678289,
    0.426895,
    -0.620791,
    -1.871137,
    -0.654916,
    1.029763,
    0.648910,
    0.483949,
    0.057745,
    1.037818,
    -0.506166,
    -0.408340,
    -0.658302,
    2.244413,
    0.042860,
    -0.635129,
    -2.297980,
    0.297402,
    -0.141739,
    -0.673884,
    0.751520,
    1.859774,
    -0.604320,
    -0.569288,
    -0.358341,
    -0.281602,
    -0.374534,
    -0.849280,
    -0.881339,
    0.934827,
    0.615334,
    -0.219564,
    -0.094733,
    -0.543383,
    -0.064789,
    0.308027,
    -1.384196,
    0.917400,
    -1.686732,
    0.977489,
    0.507738,
    0.375927,
    0.444063,
    0.568380,
    -0.012676,
    -0.806119,
    -0.830290,
    0.337337,
    0.881514,
    0.844778,
    0.910273,
    0.162215,
    1.071096,
    -0.081780,
    -1.239375,
    -0.800143,
    0.812652,
    0.642329,
    0.094806,
    -0.472380,
    -1.093014,
    0.808288,
    -0.743152,
    0.042312,
    2.078842,
    0.559106,
    0.087476,
    -0.636594,
    -0.540835,
    -1.313097,
    0.263094,
    -1.175527,
    -1.100458,
    -1.138642,
    1.224665,
    -0.284818,
    -0.881540,
    -0.554772,
    -0.653761,
    -0.442320,
    -0.833675,
    -2.208390,
    -0.580420,
    0.150782,
    -1.982631,
    0.959530,
    2.085020,
    -0.457992,
    -2.100965,
    1.435240,
    -0.208069,
    -0.453069,
    -0.072028,
    -0.591151,
    0.653987,
    -1.086843,
    -2.712522,
    -1.085031,
    0.582956,
    1.108674,
    0.723532,
    -0.257646,
    0.163307,
    -0.456404,
    -0.675734,
    -1.408631,
    -0.077918,
    0.972844,
    -0.391194,
    0.706579,
    1.253065,
    0.193746,
    0.051922,
    0.289881,
    0.458329,
    0.545205,
    -1.809328,
    -1.941544,
    2.658978,
    -0.646808,
    -0.520140,
    0.629286,
    -0.674397,
    0.401939,
    -0.391198,
    1.749122,
    -1.494962,
    0.060245,
    -0.183344,
    -0.073718,
    -0.959715,
    0.219898,
    0.326069,
    0.465932,
    1.226264,
    -0.482153,
    0.356776,
    -0.667910,
    -1.277596,
    -2.039736,
    -0.516387,
    0.401441,
    0.594247,
    -1.757686,
    1.074090,
    0.118162,
    1.046974,
    -1.445740,
    -1.712684,
    0.482605,
    0.245726,
    -1.215153,
    -1.582459,
    -0.713905,
    0.029550,
    0.019830,
    -1.684155,
    -2.411279,
    -0.082487,
    -2.153476,
    -0.313907,
    0.807862,
    0.122321,
    0.604646,
    -2.078201,
    -0.542507,
    0.949329,
    0.282745,
    -0.742614,
    -2.300629,
    -0.662706,
    -0.784144,
    -0.985680,
    1.389684,
    0.097589,
    0.636175,
    -0.652896,
    0.310777,
    -1.852331,
    -0.045356,
    -1.136787,
    0.481770,
    -1.646079,
    0.589495,
    0.594474,
    -0.290660,
    -0.813165,
    -0.707766,
    0.512023,
    0.651516,
    -0.643541,
    0.628251,
    -1.307372,
    0.167811,
    0.423412,
    -1.987755,
    -0.215545,
    -1.073002,
    -1.157631,
    1.335356,
    -0.630301,
    0.545480,
    -1.259197,
    -1.974178,
    -0.091782,
    1.283054,
    0.685104,
    -1.003148,
    -0.837947,
    -0.952613,
    -1.078283,
    -0.076300,
    -1.987919,
    -1.900518,
    -1.591840,
    0.298706,
    0.144319,
    -0.304580,
    0.926171,
    -0.740249,
    0.124022,
    -0.770517,
    -1.061627,
    -0.262762,
    -0.124736,
    0.565561,
    0.945654,
    0.915580,
    0.615990,
    -0.199146,
    1.603413,
    -0.160393,
    -0.375212,
    -0.183953,
    0.315856,
    -1.185316,
    1.006907,
    1.811654,
    -1.436612,
    3.084513,
    -0.311965,
    0.317900,
    -0.156627,
    -0.178605,
    -0.972246,
    -0.523703,
    1.336417,
    0.944169,
    -2.103042,
    2.100878,
    -0.283549,
    -2.426425,
    -1.555364,
    -0.283068,
    -1.173108,
    0.806009,
    -1.073609,
    -0.902984,
    -0.325905,
    -0.003299,
    -0.316039,
    1.497916,
    0.936230,
    0.357246,
    -0.195690,
    0.164095,
    1.520167,
    -0.479217,
    0.125476,
    -0.838571,
    0.397514,
    0.186756,
    -0.293593,
    0.457126,
    0.157032,
    1.003089,
    0.119480,
    0.257937,
    -1.248410,
    -1.262659,
    0.005243,
    -0.211392,
    -1.404774,
    0.925371,
    -2.040740,
    0.273565,
    -1.072279,
    0.090343,
    0.924225,
    -1.184551,
    2.596174,
    0.226863,
    1.034313,
    0.669773,
    -0.566049,
    0.157195,
    -0.424914,
    1.218869,
    -0.796224,
    0.435077,
    -1.251506,
    0.788488,
    0.071360,
    -0.768505,
    0.908106,
    0.798516,
    -0.427370,
    0.620383,
    -0.168168,
    -1.218180,
    0.789958,
    -1.154743,
    -0.928443,
    0.924616,
    0.574171,
    -1.824718,
    -1.605378,
    0.200396,
    -0.548323,
    0.474335,
    -0.032919,
    -1.215128,
    1.099489,
    -0.948126,
    -0.897848,
    0.261636,
    -0.962879,
    -0.191969,
    0.409581,
    -0.401353,
    -0.715353,
    0.276015,
    -0.966339,
    0.439371,
    -0.224620,
    1.085656,
    -0.435669,
    0.793919,
    -0.586468,
    -1.284682,
    -0.031197,
    -1.520535,
    -1.037069,
    -1.326327,
    -0.941601,
    -1.336949,
    -0.859363,
    0.205430,
    0.542379,
    0.924015,
    0.305059,
    0.508166,
    1.201581,
    -0.351199,
    -0.132151,
    -1.722899,
    0.568762,
    -0.987872,
    -1.165681,
    -0.883120,
    -0.673228,
    -0.674622,
    -0.144744,
    -1.065894,
    0.507161,
    -1.135767,
    1.034528,
    -1.055904,
    -1.007650,
    0.682153,
    0.916163,
    -0.450818,
    1.603384,
    -0.377000,
    -1.031580,
    -0.808514,
    0.646223,
    -3.272562,
    -0.208439,
    3.420728,
    -0.882301,
    -0.219618,
    -0.918099,
    0.956394,
    -1.530359,
    0.949710,
    1.037459,
    -0.675301,
    -0.787202,
    -1.948678,
    0.075777,
    0.694942,
    1.603271,
    -0.124338,
    0.770031,
    -1.165399,
    -1.342478,
    -2.244048,
    0.343486,
    0.126026,
    -1.126477,
    0.333590,
    2.000194,
    -0.529714,
    2.079560,
    -0.643201,
    1.249931,
    1.616674,
    -1.685484,
    0.298242,
    -0.495376,
    1.046819,
    -0.536224,
    -1.455720,
    -0.371877,
    -0.464599,
    0.570666,
    -0.629668,
    0.091667,
    -0.901672,
    2.329441,
    -1.016004,
    -0.315734,
    -0.028210,
    0.303269,
    0.553734,
    0.234821,
    2.744943,
    -0.041945,
    -0.486979,
    -0.603729,
    1.843503,
    -0.683486,
    -0.654848,
    -0.148825,
    -1.015563,
    -0.086083,
    -2.346539,
    2.082414,
    1.196814,
    -0.420271,
    -0.898963,
    0.480438,
    -1.503278,
    0.055857,
    1.050912,
    1.046911,
    -1.707644,
    -0.755151,
    1.228925,
    -1.193245,
    -0.864759,
    -0.158917,
    -0.358800,
    0.600895,
    0.166918,
    1.500278,
    -0.169732,
    0.304123,
    -0.107943,
    1.098443,
    -0.604855,
    -1.529516,
    1.308010,
    2.058762,
    -0.639154,
    -1.217973,
    1.287402,
    1.654418,
    0.711370,
    -0.991678,
    2.206747,
    0.948603,
    0.621378,
    -0.090581,
    0.187738,
    -1.083356,
    1.017675,
    -1.146806,
    0.466597,
    -0.765180,
    1.766152,
    -0.058158,
    -0.918806,
    0.032300,
    -1.408097,
    -0.321678,
    0.383257,
    0.372547,
    -1.249663,
    0.500465,
    0.307716,
    0.681799,
    -0.183054,
    -1.012389,
    -0.781242,
    0.090891,
    1.096729,
    0.076285,
    -0.007763,
    -0.506516,
    -0.358651,
    0.229714,
    -0.044137,
    -0.984261,
    2.205137,
    0.558896,
    1.335922,
    1.220713,
    -1.561593,
    1.632524,
    -0.132268,
    1.325212,
    -0.590017,
    -0.555050,
    -1.143389,
    0.269682,
    0.727553,
    -0.321742,
    1.272883,
    1.977573,
    -0.359386,
    0.323018,
    -0.288444,
    -1.214351,
    -2.037588,
    0.035175,
    0.626014,
    0.179483,
    -1.145358,
    -0.242431,
    -0.228436,
    -0.273319,
    0.317356,
    -1.288050,
    -1.312869,
    -0.819474,
    -0.445117,
    0.000558,
    -0.239271,
    0.654715,
    -1.773462,
    0.360791,
    -0.992089,
    -0.314093,
    0.242816,
    -0.250844,
    1.663282,
    0.580831,
    2.272628,
    0.656181,
    1.212665,
    0.673290,
    0.698068,
    0.600971,
    -0.443266,
    0.774752,
    -1.182374,
    -1.230628,
    0.200168,
    -1.405764,
    -0.620793,
    -0.360548,
    0.691942,
    0.313152,
    -1.725225,
    0.798999,
    1.137470,
    -1.647887,
    -0.479288,
    -1.251683,
    0.341062,
    0.784070,
    0.261517,
    1.606301,
    0.107376,
    0.448983,
    0.104895,
    1.583816,
    0.582938,
    -0.166968,
    0.509846,
    -0.117996,
    0.764981,
    1.378649,
    -1.533510,
    0.640466,
    0.813649,
    0.012852,
    1.499382,
    1.532752,
    -0.041662,
    -0.727088,
    -0.690667,
    1.256680,
    0.798645,
    1.056479,
    -0.770654,
    0.431018,
    -0.808761,
    0.029452,
    -0.304126,
    -0.775368,
    0.038518,
    1.891033,
    -0.394844,
    0.364180,
    1.634944,
    -0.948556,
    -1.815836,
    -1.899366,
    1.452957,
    -0.053200,
    0.147221,
    -0.924741,
    2.761194,
    -1.449671,
    0.630130,
    1.140199,
    0.986212,
    -0.068072,
    -0.804030,
    0.745086,
    -0.866642,
    0.520366,
    -0.988791,
    -0.204422,
    0.327423,
    0.746306,
    0.014647,
    -1.596125,
    -1.171876,
    -1.124356,
    -0.749068,
    1.085114,
    0.031894,
    -0.912635,
    -1.912102,
    -0.500957,
    0.194830,
    0.291570,
    0.378818,
    1.443966,
    0.901417,
    -0.143002,
    -1.416132,
    -1.338625,
    0.788858,
    -0.858421,
    -0.272302,
    1.605082,
    1.317190,
    0.360844,
    2.279501,
    -0.193238,
    -2.038551,
    -0.393282,
    -1.365744,
    1.003979,
    -1.593157,
    -0.220337,
    0.332668,
    -0.265744,
    0.465992,
    -0.400344,
    -0.746874,
    1.028080,
    -1.215597,
    -0.078842,
    -1.695272,
    -0.161541,
    -0.209176,
    -1.827242,
    0.096527,
    0.009095,
    -2.861779,
    -1.757314,
    -1.594822,
    -1.654722,
    0.494743,
    -0.332800,
    0.122926,
    -0.161262,
    0.113429,
    0.079757,
    -1.529761,
    1.375531,
    0.462204,
    -1.640625,
    0.684424,
    -0.782631,
    1.799166,
    -1.062649,
    -0.228418,
    0.396710,
    0.370685,
    0.089532,
    0.161924,
    0.005949,
    -1.222140,
    0.179267,
    -0.809694,
    -1.436990,
    1.655389,
    -1.010937,
    -0.567600,
    1.329426,
    0.030785,
    0.354919,
    0.070161,
    -0.805376,
    -2.302652,
    1.657930,
    -1.217663,
    0.409232,
    -1.291086,
    -0.016974,
    -0.511973,
    -0.252793,
    -0.722926,
    -0.765575,
    0.592137,
    1.733466,
    0.546923,
    0.787365,
    -1.482095,
    -2.109619,
    -0.530389,
    1.200201,
    -0.299356,
    1.525768,
    -0.239103,
    0.351021,
    0.512095,
    -1.137252,
    -3.076036,
    2.196747,
    0.412400,
    1.942816,
    0.473772,
    0.948016,
    -0.959258,
    -0.997531,
    -0.062645,
    -1.341966,
    1.741644,
    0.276963,
    1.570410,
    -0.170910,
    1.306022,
    -3.046417,
    0.689884,
    0.129196,
    -0.821674,
    0.039718,
    -1.494529,
    1.275266,
    -0.603455,
    2.201931,
    1.640744,
    1.038448,
    -0.238835,
    -1.004349,
    -1.360037,
    -0.553246,
    0.538661,
    -0.363255,
    0.808290,
    0.350748,
    0.753278,
    1.888874,
    0.861215,
    0.419347,
    0.492125,
    -0.940321,
    -0.161034,
    -0.711116,
    -0.943531,
    -3.697119,
    -0.140053,
    0.463272,
    0.232954,
    0.188648,
    -1.538534,
    0.357296,
    0.730880,
    1.175900,
    0.315336,
    -0.617337,
    2.548674,
    -1.520295,
    -1.445823,
    0.014888,
    0.477478,
    -0.021927,
    -1.506379,
    0.966991,
    0.765786,
    0.776591,
    -0.513854,
    1.384596,
    0.210508,
    -0.637151,
    -1.049007,
    -1.384789,
    -0.567515,
    -1.197271,
    0.902724,
    -0.555633,
    -0.189210,
    1.235082,
    0.989662,
    0.181344,
    -1.501938,
    -0.194811,
    1.321254,
    1.594598,
    -0.913802,
    -0.211135,
    0.663049,
    0.461698,
    -0.853189,
    0.212071,
    0.331910,
    -0.563663,
    0.861776,
    -1.263201,
    0.482727,
    0.694591,
    -1.996033,
    -0.311605,
    -0.267046,
    1.124442,
    -0.958448,
    -1.131961,
    0.784406,
    -0.295310,
    -0.219875,
    -0.477950,
    2.995412,
    0.229208,
    0.844560,
    -0.098839,
    -0.535858,
    0.244618,
    1.460343,
    -0.191330,
    -0.212729,
    -0.170117,
    -1.772980,
    -0.555515,
    -0.150337,
    0.166449,
    -0.233242,
    0.550745,
    -1.167166,
    0.736407,
    -0.098088,
    -0.035391,
    0.383225,
    -0.709954,
    0.014598,
    0.636455,
    0.632534,
    0.730615,
    0.243480,
    0.219744,
    1.181866,
    2.549799,
    0.297985,
    -0.125363,
    1.122319,
    0.463547,
    0.791889,
    -0.333343,
    -0.185264,
    0.225536,
    0.447263,
    -0.401404,
    -0.038185,
    -0.568650,
    -2.032383,
    -0.276663,
    -1.734065,
    -1.754617,
    -2.364980,
    0.487899,
    -0.577293,
    -0.828418,
    -0.226286,
    -1.429426,
    0.613006,
    -0.495202,
    -1.169572,
    1.247684,
    -0.757059,
    -0.252537,
    0.967001,
    -1.688042,
    -0.556683,
    1.918663,
    2.469784,
    -0.339396,
    -0.249502,
    -1.432665,
    -0.549304,
    -1.021645,
    1.447204,
    -0.550430,
    0.782138,
    1.632531,
    0.047792,
    -0.311755,
    1.589223,
    -1.301728,
    0.758136,
    0.175452,
    1.217302,
    -0.936849,
    1.326800,
    -1.226782,
    1.372458,
    -0.958398,
    -0.259564,
    0.156454,
    0.654091,
    0.418099,
    0.305348,
    0.467063,
    -0.020730,
    1.347619,
    -0.785821,
    0.062094,
    1.355728,
    -0.296025,
    -1.535860,
    -1.082865,
    0.047046,
    0.579285,
    -1.000057,
    0.779152,
    -2.073155,
    -0.712349,
    0.926695,
    -0.812232,
    -1.673335,
    -0.065198,
    -0.166413,
    0.012669,
    1.376054,
    0.631803,
    -0.335731,
    -1.027948,
    1.069632,
    0.448388,
    -0.851315,
    -0.942097,
    -0.208848,
    0.323937,
    -0.087592,
    -0.502317,
    0.901824,
    -1.120116,
    1.811676,
    0.297653,
    -1.870148,
    -0.469677,
    1.058032,
    -0.859001,
    -0.372814,
    -0.550937,
    -0.600175,
    1.209045,
    -1.003786,
    1.909926,
    1.881032,
    -0.272386,
    -0.151494,
    1.019509,
    -1.060630,
    1.679526,
    0.864299,
    0.680195,
    0.200267,
    1.359153,
    -1.359020,
    -0.026825,
    -0.193336,
    -0.317705,
    0.192789,
    0.784024,
    0.119803,
    -1.225496,
    1.606104,
    -0.298962,
    -0.174826,
    0.038442,
    0.393482,
    1.065183,
    0.792560,
    -1.193066,
    -1.027541,
    -0.311833,
    0.720252,
    -0.999471,
    1.300409,
    0.652978,
    -0.705654,
    -0.381276,
    -0.230555,
    -1.161943,
    1.872650,
    0.038294,
    1.002323,
    -0.366632,
    0.254949,
    0.866379,
    -2.101828,
    -0.031840,
    0.742813,
    0.018647,
    -1.998911,
    0.090392,
    0.281216,
    0.834718,
    1.169579,
    -0.534427,
    1.165603,
    2.172809,
    -0.510213,
    -0.955792,
    0.603676,
    -1.659297,
    -1.145095,
    0.602032,
    2.588066,
    0.299264,
    0.767173,
    0.361301,
    0.717806,
    -0.419891,
    -0.933853,
    0.494675,
    1.050435,
    0.465334,
    -2.756668,
    1.178534,
    -1.237423,
    -0.980022,
    -0.989847,
    -1.335257,
    -2.437756,
    -0.680488,
    -0.746972,
    0.543282,
    0.678570,
    0.548042,
    -0.564836,
    -1.562142,
    -0.407059,
    -1.570105,
    0.826000,
    0.397961,
    0.512812,
    0.609039,
    -0.344759,
    -0.917703,
    -1.100224,
    0.346741,
    -1.012531,
    0.249863,
    -0.124954,
    -0.306204,
    -0.389458,
    -0.273636,
    1.696287,
    -2.449298,
    2.147569,
    -0.230823,
    -1.353908,
    0.996876,
    0.738958,
    0.920714,
    -0.558701,
    -0.538626,
    0.589215,
    -1.040012,
    0.297405,
    -0.180521,
    -1.023020,
    -0.575215,
    -0.804395,
    0.253426,
    -1.517051,
    0.208793,
    -0.590530,
    1.595559,
    -1.399533,
    -0.695797,
    0.727118,
    -1.081696,
    0.484273,
    -1.316150,
    -0.095567,
    -0.652742,
    0.695383,
    -1.136598,
    -0.265352,
    -0.627489,
    1.995825,
    1.360333,
    0.844079,
    0.390096,
    -1.100117,
    -0.798357,
    -0.646172,
    -0.191962,
    -1.192644,
    -0.073118,
    -0.002273,
    0.080626,
    -0.127539,
    -1.328210,
    0.495844,
    -1.523127,
    2.498764,
    0.961854,
    1.292891,
    -1.746610,
    -0.386765,
    0.377030,
    -2.251457,
    -0.220911,
    0.196012,
    0.671227,
    -1.243847,
    1.145822,
    -0.559355,
    1.157918,
    -2.775339,
    0.176844,
    -0.444248,
    0.633449,
    -0.156045,
    0.320443,
    -0.097301,
    -0.914594,
    -2.072407,
    0.281317,
    -0.761970,
    0.031570,
    0.976750,
    -0.330343,
    -0.571525,
    -1.617947,
    -0.179167,
    -1.053787,
    -0.149440,
    0.401171,
    0.658901,
    0.266960,
    1.894642,
    -0.129431,
    1.331486,
    -0.576975,
    -0.470328,
    -0.619371,
    0.908196,
    2.505270,
    -1.761163,
    -1.045608,
    -1.031813,
    -1.145678,
    0.180160,
    -0.192290,
    1.302248,
    0.725213,
    -1.220296,
    -0.611661,
    -0.706802,
    0.529601,
    0.559366,
    0.566737,
    -1.412343,
    -1.784925,
    -0.845186,
    -0.790375,
    1.444631,
    0.180955,
    1.332127,
    0.391239,
    1.163961,
    0.577557,
    0.943237,
    0.167356,
    0.357925,
    -0.146919,
    0.290368,
    1.350325,
    1.138413,
    0.253924,
    2.334721,
    1.181799,
    1.319467,
    0.033885,
    -0.097112,
    -1.973351,
    1.358027,
    0.238463,
    -1.183569,
    -1.311657,
    0.286208,
    -0.598572,
    1.287188,
    -0.506064,
    0.504155,
    0.963040,
    -1.696410,
    -2.085519,
    -0.407657,
    1.093413,
    -0.921746,
    -0.964039,
    -0.815953,
    0.559023,
    1.646907,
    1.037916,
    1.617757,
    -1.005858,
    0.131397,
    -0.387696,
    0.508352,
    0.084204,
    -0.346314,
    -1.084466,
    -0.324737,
    -0.226077,
    0.365551,
    0.048622,
    0.932433,
    -0.434900,
    0.330296,
    1.747575,
    1.090865,
    1.582600,
    -1.012045,
    -1.422596,
    -1.048416,
    1.136269,
    -0.283592,
    1.214854,
    -1.204760,
    1.586853,
    -0.156431,
    1.291346,
    1.389354,
    1.605682,
    0.392604,
    1.117648,
    -0.665860,
    0.192534,
    -0.006543,
    0.788711,
    -0.640616,
    0.864279,
    -0.641874,
    0.613264,
    1.081071,
    0.216766,
    0.875725,
    -0.362771,
    0.447379,
    1.514922,
    0.807778,
    -0.682142,
    -1.549879,
    0.522301,
    0.049353,
    0.064867,
    1.674223,
    0.920432,
    0.898414,
    1.265829,
    -1.554311,
    0.265237,
    0.004092,
    -0.037520,
    -0.927986,
    1.041569,
    0.321845,
    -0.455663,
    1.870212,
    0.440224,
    -0.725320,
    0.855589,
    -0.486181,
    -1.729473,
    0.121605,
    -0.612540,
    -0.918203,
    0.207403,
    -0.168617,
    0.116923,
    -0.307368,
    -0.496943,
    3.360889,
    0.769909,
    -0.644904,
    -1.176732,
    1.094156,
    0.073914,
    -1.225646,
    -1.870596,
    0.821829,
    -0.296746,
    -0.279322,
    -0.850759,
    -0.876410,
    -1.886202,
    1.670107,
    -0.929434,
    -0.342656,
    0.183804,
    0.154406,
    0.145259,
    0.246230,
    0.287282,
    0.595038,
    -0.192712,
    -0.218343,
    -0.273599,
    0.200541,
    -0.202067,
    -0.976762,
    -1.990089,
    -0.151336,
    -0.747681,
    0.883186,
    -0.327139,
    -0.281965,
    -2.484331,
    -0.112093,
    -0.498753,
    0.828987,
    -0.896781,
    -0.010833,
    0.645984,
    0.987988,
    -0.098110,
    -0.059637,
    -0.258903,
    2.382817,
    0.379422,
    -1.010698,
    -0.192070,
    0.684132,
    0.908247,
    -0.717048,
    0.480850,
    -0.298427,
    -0.794666,
    -1.049384,
    -1.166863,
    -0.467921,
    -0.039851,
    -0.135626,
    0.831722,
    -0.561747,
    -1.102548,
    -1.574672,
    0.910760,
    0.604453,
    -0.765809,
    -2.077677,
    0.631760,
    0.154282,
    -0.060536,
    2.107522,
    0.433766,
    1.176967,
    -1.063378,
    0.091081,
    -0.239911,
    0.914207,
    -0.740709,
    -0.255694,
    -2.072447,
    -0.263213,
    0.058540,
    -1.215861,
    2.238816,
    -0.272915,
    0.177237,
    -0.391501,
    1.679066,
    -1.038910,
    -0.275336,
    -0.743606,
    -0.310730,
    0.326599,
    1.570008,
    -1.610626,
    -2.763468,
    0.651541,
    0.821673,
    0.256926,
    1.329142,
    1.603651,
    0.744924,
    1.558586,
    -0.542415,
    0.363923,
    -0.192005,
    1.493493,
    -1.150069,
    0.606327,
    -1.039250,
    2.708845,
    -0.095310,
    -0.143773,
    -0.511527,
    0.276225,
    0.455033,
    0.176768,
    1.510319,
    -0.422466,
    -0.339806,
    -0.666821,
    1.019396,
    -0.249546,
    0.477536,
    -0.698398,
    -0.051660,
    -0.629314,
    -0.545113,
    1.487474,
    -0.518049,
    -0.356294,
    0.510368,
    0.615189,
    -0.176548,
    0.320097,
    0.439088,
    -0.516162,
    -0.274141,
    0.293937,
    -0.657609,
    -1.484895,
    0.028849,
    0.755395,
    -0.239411,
    -0.643997,
    0.218596,
    0.811332,
    -0.935252,
    0.071257,
    0.128016,
    -2.045508,
    -0.431566,
    0.780996,
    2.548788,
    0.203645,
    0.509720,
    0.486364,
    -0.347738,
    1.408390,
    -1.196579,
    -0.266045,
    -0.708856,
    0.356906,
    -0.898126,
    -1.356365,
    -0.482137,
    -0.869726,
    1.055566,
    -0.310419,
    -0.407039,
    -1.346385,
    -0.828658,
    -1.326576,
    1.214566,
    -1.154985,
    -1.307520,
    0.383179,
    -1.009768,
    -1.097903,
    -1.528592,
    0.088085,
    -1.450933,
    0.537406,
    0.972869,
    -0.725226,
    -0.943406,
    2.355849,
    0.377385,
    1.383114,
    0.239175,
    0.630757,
    -0.006806,
    -1.463302,
    0.362348,
    1.058257,
    -1.159198,
    0.741853,
    -1.074312,
    0.063982,
    0.606856,
    -2.453279,
    0.057026,
    0.246683,
    0.802749,
    0.201848,
    -2.281449,
    1.335695,
    -0.865111,
    1.040076,
    0.063147,
    -0.353445,
    1.038862,
    0.596846,
    0.842235,
    -1.625991,
    -1.369509,
    -0.103748,
    -1.963532,
    -0.073104,
    -0.777810,
    1.413244,
    -2.573559,
    0.004995,
    -2.529639,
    -0.283895,
    0.497211,
    -1.158336,
    0.693074,
    0.428553,
    -0.825591,
    0.444534,
    1.668090,
    2.718689,
    -0.115427,
    -1.588217,
    -0.717010,
    -0.570471,
    1.039834,
    0.191211,
    -0.343163,
    -0.893292,
    -0.644534,
    -1.043620,
    -0.844624,
    0.525570,
    -1.573320,
    -0.826883,
    0.489038,
    -0.853705,
    -0.084677,
    1.202667,
    0.256832,
    0.224130,
    -0.067961,
    0.698335,
    -1.198493,
    1.205792,
    0.328931,
    0.343903,
    -1.935720,
    -0.369042,
    0.022736,
    0.925646,
    -0.265213,
    -0.806959,
    -0.065725,
    -0.073875,
    -0.718038,
    -0.611365,
    0.465760,
    -1.700601,
    0.356966,
    0.284588,
    -1.005511,
    0.024431,
    0.748006,
    -1.329806,
    -0.231542,
    -1.209482,
    0.302316,
    0.571032,
    0.836348,
    1.166283,
    0.950441,
    0.440389,
    0.903426,
    0.813477,
    -0.190818,
    1.550486,
    -0.261620,
    0.388092,
    0.935164,
    0.618806,
    -0.919657,
    -0.358533,
    0.159396,
    0.003455,
    0.519159,
    -0.889574,
    1.614872,
    0.617471,
    -1.277256,
    1.060262,
    -0.655024,
    -0.405813,
    0.897601,
    1.201360,
    1.117020,
    1.477201,
    -0.424008,
    0.866838,
    1.462545,
    1.110954,
    1.153628,
    0.556755,
    -0.621891,
    -0.764679,
    0.077444,
    -0.550451,
    -0.007182,
    -0.767416,
    1.177078,
    0.257216,
    -0.526155,
    0.458393,
    0.682776,
    -0.350591,
    -0.190710,
    0.556971,
    -0.335362,
    0.575849,
    0.049972,
    -0.048965,
    1.570066,
    0.782300,
    0.595692,
    -1.014870,
    0.471605,
    2.003780,
    -1.920725,
    -0.161406,
    -0.931268,
    0.387195,
    0.253822,
    -1.010216,
    0.094925,
    1.503474,
    0.863318,
    1.434093,
    1.262559,
    -0.018405,
    -0.755558,
    -0.317663,
    0.018928,
    0.135046,
    0.291149,
    0.301692,
    -0.084984,
    -0.803966,
    0.156701,
    -0.169653,
    0.109885,
    -1.898422,
    -0.694256,
    -0.117969,
    -0.500168,
    0.907021,
    -0.708760,
    1.484556,
    1.956701,
    3.013955,
    -1.303485,
    0.384078,
    -0.262324,
    0.342443,
    1.290498,
    1.881144,
    1.276149,
    0.378261,
    0.697970,
    -0.917683,
    1.002128,
    -0.450239,
    1.125926,
    -2.039568,
    1.789791,
    -1.562254,
    0.154273,
    -0.349693,
    -0.008657,
    0.619449,
    1.485633,
    1.024680,
    -1.592623,
    0.588507,
    -0.549741,
    -1.918110,
    -1.333131,
    0.795424,
    0.610623,
    1.184685,
    0.271270,
    -1.040353,
    -0.410127,
    1.956066,
    -0.985982,
    -0.660822,
    -1.766863,
    -0.491846,
    -0.629549,
    1.434059,
    -1.216226,
    1.060838,
    -0.266618,
    -0.363792,
    -0.114983,
    -0.982218,
    1.104017,
    -0.063871,
    -0.528994,
    0.041757,
    -1.404421,
    -2.567321,
    0.564530,
    -0.049391,
    1.910913,
    -2.561643,
    -1.306675,
    0.545124,
    0.888805,
    1.630617,
    -2.368527,
    -0.436242,
    -0.096853,
    -1.263255,
    -0.995160,
    -0.324237,
    -0.450453,
    0.574853,
    0.816088,
    1.747729,
    0.429901,
    0.151226,
    0.210592,
    -0.266932,
    1.110863,
    -0.971294,
    1.522796,
    -0.999383,
    0.750057,
    -0.721633,
    -1.031119,
    -1.360948,
    -0.406275,
    -1.036545,
    1.138125,
    -1.003902,
    0.857519,
    -0.952134,
    -0.771888,
    0.714509,
    -0.820308,
    0.144215,
    1.127157,
    -0.381873,
    -0.328076,
    0.346687,
    -1.253045,
    -1.131781,
    -1.074609,
    1.359431,
    0.164746,
    -1.291233,
    0.884559,
    -0.272573,
    0.337958,
    -0.245771,
    -0.771078,
    0.886125,
    -0.690749,
    1.238037,
    -0.213455,
    0.902599,
    -1.156873,
    1.160842,
    0.365146,
    0.039515,
    -0.628857,
    -0.970608,
    -1.188941,
    -0.070259,
    -3.835304,
    -2.312177,
    0.148108,
    -1.684576,
    -0.833240,
    1.779006,
    -0.802754,
    -0.318493,
    0.081218,
    0.611115,
    -0.387680,
    -0.226751,
    -0.360462,
    -0.180117,
    0.278101,
    0.571366,
    1.720966,
    -0.223871,
    0.944053,
    0.000027,
    0.264862,
    -0.226633,
    0.491781,
    0.856673,
    -1.047079,
    -0.551310,
    -1.165189,
    0.151477,
    0.506433,
    -1.310102,
    -1.307623,
    -0.098000,
    1.583041,
    -0.175845,
    -0.235288,
    -0.298709,
    0.577971,
    0.570293,
    -0.263980,
    -2.118436,
    0.032260,
    -0.074698,
    0.152625,
    1.085588,
    0.153476,
    -0.959330,
    0.566983,
    -0.882161,
    0.407684,
    -0.541055,
    0.540504,
    -0.795009,
    0.745029,
    0.212789,
    -0.055422,
    1.204903,
    -2.699730,
    -2.028811,
    0.458632,
    -0.351664,
    -0.163164,
    -1.732935,
    0.890693,
    -1.383278,
    -1.036253,
    1.579315,
    -0.078418,
    -0.803764,
    -1.092125,
    0.477171,
    -0.670071,
    0.384620,
    0.266571,
    0.602547,
    1.202057,
    -0.473130,
    -0.873857,
    -0.043754,
    -2.690884,
    -0.618749,
    0.140579,
    -0.356149,
    0.808112,
    -0.733651,
    -0.275799,
    1.121911,
    1.870085,
    -0.269268,
    0.728616,
    -1.681381,
    -1.168232,
    0.295430,
    -1.801540,
    -2.290188,
    -0.853640,
    -1.559987,
    -1.352113,
    1.303375,
    1.787399,
    1.119481,
    -0.915754,
    -0.573790,
    -1.869463,
    0.057710,
    -1.830818,
    0.164721,
    1.002944,
    -0.054274,
    -0.866626,
    -1.389210,
